layers 16
layer 0 InputLayer
layer 1 Conv2D
8 1 3 3 valid 1
[ 0.24992475 -0.1453187   0.23452647]
[ 0.09717368 -0.15362374 -0.14167203]
[-0.00308622 -0.08497451  0.14804268]
[ 0.0503899  -0.32483748 -0.00076086]
[ 0.07463623 -0.02862134  0.14910664]
[0.09933326 0.18402389 0.1246274 ]
[0.12163875 0.28064692 0.16092247]
[ 0.05588378 -0.21891117 -0.13938925]
[-0.05306189 -0.05091864 -0.18089707]
[0.21046183 0.32378042 0.00587018]
[-0.061855    0.20973577  0.21553344]
[-0.2833645  -0.04398243 -0.19776072]
[-0.07585272 -0.25502595  0.07575677]
[ 0.12694435 -0.05540127 -0.29241744]
[ 0.000582    0.1714508  -0.14193912]
[-0.20681839  0.09666175 -0.25826442]
[-0.12021653  0.03105443 -0.4165414 ]
[-0.10417984 -0.13942687 -0.07658684]
[-0.00730745 -0.02180826 -0.08544442]
[ 0.12466189 -0.12538947  0.11769558]
[-0.03473653 -0.35362783 -0.38127777]
[-0.08755434  0.08558721  0.2550623 ]
[-0.00927194  0.17765014 -0.14874011]
[ 0.141976    0.18409503 -0.0943709 ]
[ 0.01573742 -0.00547029 -0.00394714  0.03650212 -0.00309107  0.06389034
 -0.06705378 -0.00615793]
layer 2 BatchNormalization
8 0.001
[0.91843104 0.97905046 1.0103259  0.95508623 1.1229072  1.239987
 1.1765448  0.9597027 ]
[-0.02943845 -0.01672019  0.00032442  0.00076731  0.01821797 -0.07238791
 -0.04731038 -0.01745871]
[  9.2621975  13.169849   -0.3465878  15.610168  -18.332626  -51.026794
 -29.069145   19.723433 ]
[ 336.49374  601.86163  457.84924 1085.4397   805.82367 4569.3633
 1970.1809   891.4007 ]
layer 3 Activation
relu
layer 4 MaxPooling2D
2 2 2
layer 5 Conv2D
16 8 3 3 valid 1
[ 0.0573776  -0.06649019  0.11431377]
[-0.00505917  0.11495838  0.04065194]
[-0.0862243  -0.07509807  0.06626968]
[ 0.13465412 -0.11240383  0.00341294]
[0.13490492 0.00795967 0.00726453]
[ 0.0760951  -0.07503143 -0.10615178]
[-0.02407879 -0.21821927 -0.0254814 ]
[ 0.137026   -0.09041265  0.01024563]
[-0.106438    0.04216743 -0.04312215]
[-0.05400913 -0.11566164  0.17311105]
[-0.25625563  0.1962824  -0.16502437]
[-0.07063454  0.09856945  0.08483882]
[ 0.07921886 -0.01475828  0.04828598]
[ 0.33519316 -0.0999494  -0.12857808]
[-0.04734025  0.08009926  0.05518327]
[ 0.12812439 -0.0487882  -0.11627453]
[0.02157835 0.16710722 0.0752137 ]
[0.19507597 0.11519284 0.01932976]
[ 0.03158358 -0.00467802 -0.03819222]
[-0.0682176  -0.01122408 -0.17981586]
[ 0.09990856  0.07058559 -0.17398414]
[-0.1302676  -0.00429603  0.07018787]
[-0.1891391  -0.01979036  0.05859446]
[0.1503008  0.02001556 0.16029394]
[-0.15717117 -0.0147965  -0.13505912]
[ 0.12818255 -0.0348397   0.04209714]
[-0.0463146   0.02125244  0.19877051]
[ 0.1131172  -0.030332    0.07339475]
[-0.00501203 -0.07193266 -0.01483168]
[-0.05262529 -0.25650728 -0.10916036]
[-0.00649486 -0.03688198  0.04050276]
[0.00819102 0.13378286 0.1603867 ]
[-0.05976656 -0.21933137 -0.02616658]
[-0.06394023  0.08961412 -0.02196545]
[ 0.00838519 -0.06617614  0.17514385]
[-0.09743974 -0.07345839 -0.20790182]
[ 0.11162409 -0.04916237  0.17740467]
[-0.00390461  0.0773638   0.06981767]
[-0.11650001 -0.06041586 -0.12807305]
[ 0.10998084 -0.1343482  -0.17633261]
[0.11497266 0.0234007  0.15042372]
[ 0.11914261  0.12669617 -0.07776762]
[ 0.12084343 -0.18700339  0.13818131]
[-0.06297094 -0.17246339  0.13665792]
[ 0.05377964  0.16819377 -0.05025315]
[ 0.15689147 -0.00239189  0.02639276]
[-0.1563376   0.1105345   0.18448105]
[-0.1750049   0.04470319  0.01139718]
[ 0.0494763   0.00936494 -0.13984898]
[ 0.01061357  0.10597811 -0.14573567]
[-0.01322525 -0.03300297  0.11370716]
[-0.0032511   0.12460136  0.0574849 ]
[ 0.07799821  0.08572265 -0.23426177]
[ 0.1917889   0.1350401  -0.05474977]
[-0.13139358  0.06954429 -0.08436619]
[-0.0682693   0.08213252 -0.03175339]
[-0.04463609  0.01835691  0.0853695 ]
[ 0.02085163 -0.11357939 -0.16861312]
[ 0.13503827  0.18385583 -0.12041648]
[-0.0180367  -0.1900594  -0.22666821]
[-0.13790631  0.11605085 -0.00929925]
[-0.06485016  0.00693876 -0.0113051 ]
[-0.10820548  0.06011212  0.20323938]
[-0.26207    -0.07836965  0.12137489]
[-0.21743421 -0.05348698 -0.09442344]
[-0.15903178 -0.11932674  0.10923149]
[-0.09338143 -0.00655179 -0.19002733]
[-0.11176214 -0.13277715 -0.13115698]
[-0.3190081  -0.09874914 -0.10609914]
[-0.11051985 -0.1649498  -0.17498238]
[ 0.02641241  0.01839562 -0.18878774]
[ 0.01405819  0.08119766 -0.12467894]
[-0.07268707 -0.09634283 -0.058341  ]
[-0.04022475 -0.09704508 -0.03142903]
[ 0.05334013 -0.14695628  0.1199929 ]
[-0.13189434  0.08571334  0.02752084]
[ 0.12391747 -0.05587586  0.00699303]
[-0.09394757  0.05072963  0.0509924 ]
[-0.05122956 -0.06958285 -0.12112201]
[-0.1491944  -0.06988027 -0.05879747]
[0.2546645  0.03103864 0.03949459]
[-0.15454547 -0.12876032  0.17557812]
[-0.04593301  0.04638619 -0.02874954]
[0.07763159 0.03334524 0.10865029]
[ 0.22059698 -0.11039981 -0.1186905 ]
[ 0.05264617  0.00916569 -0.21291734]
[-0.01765457  0.03881238 -0.10310404]
[ 0.27046135 -0.03855233 -0.08573715]
[ 0.30841157  0.10500553 -0.05647497]
[ 0.30844468 -0.23081268 -0.07934041]
[-0.01740941 -0.22749881 -0.20440362]
[ 0.1471189  -0.24100961 -0.32636562]
[ 0.09426522 -0.08184529 -0.18313986]
[-0.07014188 -0.01287595  0.10288714]
[0.05077369 0.13712311 0.15003121]
[-0.11301295 -0.02523332 -0.03589188]
[-0.26169023  0.1425663   0.13192925]
[ 0.07094823 -0.05725981  0.01640865]
[ 0.01699712 -0.12112065  0.00408893]
[-0.1352936   0.06561451  0.07090951]
[-0.1178094  -0.18099552 -0.07411951]
[ 0.04911345 -0.16137385 -0.04221547]
[-0.1442504   0.11576658  0.00981882]
[0.11000732 0.13067332 0.188131  ]
[ 0.174948    0.1354435  -0.19001462]
[-0.15783542 -0.00485407  0.07006899]
[ 0.05293722 -0.11071981  0.08205588]
[0.2496375  0.05833765 0.03572676]
[-0.06645769 -0.13362135 -0.02366198]
[0.13930671 0.04611551 0.05663176]
[-0.09620059 -0.14921202  0.05719035]
[ 0.14477956 -0.07918989 -0.00145833]
[ 0.08106139 -0.24107122  0.0766604 ]
[-0.04217008 -0.10293578 -0.01625863]
[-0.1769936  -0.3102639   0.07440709]
[ 0.10641095 -0.05537682 -0.04813908]
[-0.004647    0.07623065 -0.20231381]
[ 0.0806968  -0.01337019 -0.01199986]
[ 0.0846201  -0.10225481  0.04113895]
[-0.0922676   0.10318363 -0.09621481]
[-0.14902106  0.06655563  0.00510451]
[-0.19924806 -0.06206121  0.1354422 ]
[-0.16979763 -0.07265053  0.0511427 ]
[ 0.07377318 -0.12759894 -0.00536091]
[-0.2134506  -0.19598229  0.1742466 ]
[-0.03360733 -0.16994801  0.21279258]
[-0.08450879  0.01652605  0.14164183]
[-0.02747423  0.13291818  0.16564666]
[0.11225275 0.17505103 0.05185197]
[-0.10725451 -0.00883493 -0.17491561]
[0.07830931 0.11265266 0.04070647]
[-0.01614674  0.1362155   0.09559991]
[ 0.02076889 -0.1968403   0.12745385]
[-0.05106061 -0.04708689 -0.08003388]
[ 0.25253558 -0.20099822 -0.11841065]
[-0.04584311 -0.2884741   0.1206088 ]
[0.08486157 0.03117507 0.08425788]
[-0.07895789 -0.12878036  0.13118644]
[-0.14760573  0.00148878 -0.09534416]
[ 0.14146093 -0.07060779  0.0163729 ]
[-0.07131016 -0.13323902  0.16726099]
[ 0.01240349 -0.10450494 -0.1328302 ]
[-0.0306486   0.01101384  0.01576073]
[ 0.03028008  0.02984277 -0.08184309]
[-0.11224286  0.14950562  0.08738106]
[0.1290951  0.01379973 0.13148041]
[-0.08714242 -0.20459688 -0.0071526 ]
[-0.1941647  -0.06288524 -0.11570872]
[-0.0792338  -0.03047705  0.09471251]
[-0.02221094 -0.02782044  0.01883311]
[ 0.1393157  -0.05258752 -0.05151163]
[ 0.23972046 -0.09372345 -0.11001945]
[-0.02506359  0.02394481  0.05606302]
[-0.01458973  0.08288833  0.00527769]
[-0.09470476 -0.1594409   0.07430529]
[-0.18909645 -0.15020287  0.14425997]
[-0.13050431 -0.11488506  0.12348556]
[-0.05429015 -0.14024433 -0.07682034]
[0.2705268  0.00237022 0.04449667]
[ 0.04171191 -0.2677715  -0.2685517 ]
[ 0.06130749 -0.09493405 -0.15800141]
[ 0.04249882 -0.06400915  0.04549588]
[ 0.00844384 -0.14684622 -0.06397968]
[ 0.04521197 -0.18151781  0.07795121]
[ 0.08324288 -0.16125703 -0.05389534]
[ 0.06176827 -0.07506925 -0.05806711]
[ 0.05266747 -0.11570601  0.01454161]
[-0.02925602  0.0459774   0.07548862]
[0.11673976 0.03485209 0.08031932]
[ 0.17648551 -0.06606789  0.08183333]
[-0.0129526   0.18461077  0.14891647]
[ 0.1577826  -0.08501258  0.0194865 ]
[-0.01051491 -0.0163148   0.15496126]
[-0.2321083   0.20358698  0.12364876]
[ 0.00595174  0.01442903 -0.03279126]
[ 0.06805046  0.02683916 -0.193255  ]
[-0.08654876  0.08291689  0.04608431]
[-0.16546956 -0.16168249  0.09027363]
[-0.07715092 -0.14123239 -0.06724311]
[ 0.00281468 -0.03796187  0.08516369]
[-0.16947614  0.0373992  -0.00267621]
[-0.17738879  0.0188391  -0.117291  ]
[-0.16912295 -0.04161907 -0.12492663]
[-0.28883228  0.01670104 -0.02577795]
[-0.22787417 -0.07363395 -0.14965297]
[-0.28820163 -0.21718213 -0.16016561]
[-0.1249813  -0.12686048 -0.14148457]
[-0.08210906  0.03011835 -0.01304534]
[-0.29655612  0.0157565  -0.15169877]
[0.07511414 0.08460804 0.07268765]
[-0.03657649  0.07222709  0.07345498]
[0.03911244 0.10673963 0.11886489]
[ 0.05276164  0.09074534 -0.16437224]
[-0.00453628  0.03142826 -0.08331543]
[ 0.22163484 -0.10953446  0.07830619]
[-0.08482571 -0.01247412  0.0082035 ]
[ 0.04873246 -0.06475517 -0.05461095]
[ 0.03882776 -0.01081634  0.24331339]
[ 0.18197973 -0.14803354 -0.01570674]
[-0.04771808 -0.02365704  0.03570998]
[ 0.07270274 -0.03788201 -0.03744653]
[-0.09002077 -0.03847186 -0.07000493]
[-0.07377116 -0.07172585  0.01502961]
[-0.13121058 -0.06699131  0.0745444 ]
[-0.11437532  0.18873157  0.08300149]
[ 0.0056319   0.19800983 -0.03799004]
[-0.10638886  0.08285004  0.04525255]
[-0.00508063  0.43165815  0.26164   ]
[0.09805234 0.22041267 0.2698369 ]
[0.06813606 0.19902635 0.04324797]
[-0.18926737  0.20512436  0.2059229 ]
[-0.17101519 -0.00495004 -0.01358281]
[-0.04655044  0.16644777 -0.04857298]
[-0.18920372  0.14104833  0.03859872]
[-0.06052006 -0.12020584 -0.02276889]
[-0.1365022  -0.03214886  0.05826983]
[0.00396674 0.18067518 0.00440613]
[-0.12240892  0.15662885 -0.00386292]
[-0.12369239  0.11993138 -0.10780873]
[0.04532807 0.08714096 0.11748558]
[ 0.1651366  -0.01639877  0.0003457 ]
[-0.06033079 -0.04110567  0.16377409]
[ 0.03854787 -0.13901393  0.13881177]
[-0.13018794  0.06029439 -0.03290843]
[0.06948051 0.0475423  0.00045735]
[-0.27686834  0.08596896  0.01454915]
[0.01748774 0.05375227 0.01192561]
[-0.16910571 -0.04164831 -0.01909688]
[ 0.01191893 -0.06957282 -0.16472714]
[0.05781417 0.14331366 0.17895038]
[-0.16923136 -0.12399738  0.12525484]
[-0.07730917  0.09198695  0.1413141 ]
[-0.3035448  -0.22525416 -0.04207308]
[-0.23722534 -0.00452844  0.05944273]
[-0.0784305  -0.0049944   0.06665458]
[-0.15997465 -0.17236754 -0.11622431]
[-0.20448205  0.09782493  0.13391532]
[0.06438783 0.08317361 0.01122198]
[ 0.16449931 -0.11986768  0.15333517]
[-0.02989197  0.0360034  -0.01904174]
[-0.12964524 -0.05990594  0.07442158]
[ 0.1749741  -0.00349423 -0.06967506]
[ 0.14118096 -0.09016836 -0.01651332]
[-0.01607976 -0.07097611  0.007019  ]
[-0.0026619  -0.18438102 -0.15587832]
[-0.01846205 -0.20672855  0.14323719]
[0.05637285 0.01207975 0.21601595]
[-0.06337503 -0.03112329  0.10026675]
[ 0.14057462 -0.12867971 -0.06553826]
[0.10739321 0.04682392 0.16088513]
[-0.19227372  0.03529982 -0.10831109]
[-0.05754796 -0.08071563 -0.17807706]
[ 0.2196019  -0.02176542 -0.20567246]
[ 0.15404958 -0.08472074 -0.18400836]
[ 0.17518242  0.09214694 -0.10621214]
[ 0.06698252 -0.16588178 -0.00448006]
[ 0.2459491  -0.13045204 -0.24101365]
[ 0.00902973 -0.22495772  0.03332523]
[ 0.2470255  -0.04296811  0.08546983]
[ 0.24056369  0.04482796 -0.18345095]
[ 0.24623641  0.07742374 -0.06989951]
[ 0.08329158 -0.09461843  0.15417483]
[-0.14548801 -0.12538902  0.0829326 ]
[ 0.12327003 -0.03357581 -0.19702132]
[ 0.02233594  0.14793864 -0.1139186 ]
[-0.12867087  0.07850426  0.00540272]
[ 0.12579599  0.05291096 -0.11864049]
[-0.01136216  0.10903271 -0.15699561]
[-0.0486001   0.09131908  0.03464254]
[-0.040459    0.09031088  0.14801191]
[ 0.01497657  0.15488394 -0.07823618]
[-0.1620649   0.04509561 -0.01706935]
[-0.07010768  0.0158154  -0.03901156]
[-0.04836577 -0.20442736 -0.18122452]
[ 0.05818881 -0.05186422  0.04291128]
[0.12253516 0.1660526  0.14559653]
[-0.03678761 -0.06259007  0.00096633]
[-0.16272487 -0.21996807 -0.16345455]
[0.02324839 0.09370905 0.10978979]
[-0.00743891 -0.27297577  0.16745378]
[ 0.16420501  0.054985   -0.01823961]
[-0.09862161  0.03368583  0.1597259 ]
[-0.11250909  0.09506324  0.14539716]
[ 0.07450885 -0.21933144 -0.01487715]
[-0.3157649   0.03421185  0.19413541]
[-0.02418654 -0.04370671 -0.22106625]
[-0.16799219 -0.18730731  0.04201428]
[-0.06945588 -0.0634746  -0.09412112]
[0.04953887 0.0545724  0.08788036]
[0.14287801 0.03958036 0.03698511]
[0.02643902 0.05713218 0.26296905]
[0.07775913 0.0806229  0.00806624]
[ 0.01522359 -0.08062254 -0.09858774]
[-0.14701587  0.01360283 -0.0174156 ]
[-0.08761253 -0.12767638 -0.16350667]
[ 0.09080532 -0.01414772 -0.03176116]
[ 0.10909452  0.00521097 -0.19868942]
[-0.04941081 -0.03681288  0.07582377]
[-0.00894139 -0.10398253 -0.00535048]
[-0.11242432  0.01411923  0.0600999 ]
[-0.29301074 -0.06794089 -0.19490065]
[-0.00711914 -0.08273494 -0.2675089 ]
[-0.17838155 -0.14781286 -0.13912356]
[-0.3829223   0.07923226 -0.07505428]
[-0.3310043  -0.14621697  0.08811262]
[-0.12349787 -0.18499835 -0.07748985]
[-0.18278225 -0.32037613 -0.0481001 ]
[-0.11261808 -0.20088527  0.08450343]
[ 0.02066613  0.02268143 -0.0034292 ]
[ 0.07061004 -0.05289883  0.07479851]
[0.14424835 0.10508686 0.01910317]
[-0.02561929 -0.07212762  0.08935779]
[0.18214756 0.05876672 0.040049  ]
[-0.12683134  0.12645929  0.02905688]
[-0.05569953 -0.0607254   0.06596009]
[-0.12808304  0.12520325 -0.01976615]
[-0.05852794 -0.01116036 -0.08797521]
[-0.20612088  0.1099311  -0.06002261]
[ 0.13149467  0.13316786 -0.2996329 ]
[-0.21600604 -0.07659012 -0.13989535]
[ 0.16903526  0.03742729 -0.00540024]
[-0.00360314  0.21690364 -0.08633064]
[-0.11640001 -0.09582496  0.03634151]
[-0.02411327 -0.01291096 -0.0341788 ]
[ 0.13585293  0.19926289 -0.27818602]
[-0.03826587  0.20391579 -0.03992229]
[ 0.13101013  0.0300653  -0.13517627]
[-0.1383309   0.18660815  0.10113065]
[0.13264754 0.10525377 0.01812805]
[-0.04062359  0.04103516 -0.19094421]
[-0.19059047  0.06724644 -0.02035828]
[0.12344591 0.2414678  0.05810048]
[-0.02059351  0.0635173   0.17457643]
[ 0.03421323 -0.06352654  0.16366225]
[ 0.11904293 -0.10799197 -0.0847942 ]
[ 0.16473119 -0.03700848 -0.1222952 ]
[-0.20384824 -0.00434392 -0.0641122 ]
[-0.08576217  0.07715406  0.01928132]
[-0.14390549 -0.09443792 -0.13134909]
[0.17209034 0.00245827 0.15611202]
[-0.05545925  0.01622    -0.06729022]
[-0.03365459 -0.17041184 -0.17991951]
[0.05888474 0.11622197 0.02491579]
[-0.09872136  0.00299801  0.05250715]
[-0.1656049   0.17763296  0.00140456]
[-0.0151449  -0.08582353  0.14816353]
[ 0.01034679 -0.07927597 -0.11136929]
[ 0.0579222  -0.14447682 -0.19649959]
[0.05301636 0.08187284 0.07144853]
[ 0.05674051 -0.02903955 -0.13728818]
[-0.01663426  0.00180611  0.04998296]
[ 0.06573561 -0.0961185   0.13372904]
[0.03251681 0.08486737 0.1418591 ]
[ 0.14768083  0.15235865 -0.06256674]
[ 0.02537113 -0.11223974 -0.15558879]
[-0.04608262  0.09941095 -0.10488581]
[0.05894663 0.02924132 0.04698732]
[ 0.04784564  0.23966342 -0.00317427]
[ 0.05854068  0.05961435 -0.1623837 ]
[ 0.09700111  0.23768905 -0.23167647]
[ 0.13530162 -0.06108842  0.03174619]
[-0.14131682  0.06111042  0.17693855]
[-0.08885475 -0.06749547  0.15072086]
[0.07895114 0.07461001 0.02725869]
[-0.04443481  0.06793687  0.25244072]
[-0.06346501 -0.20577154  0.16071936]
[ 0.02515361 -0.22434682 -0.01909534]
[-0.20342258 -0.18308373 -0.02189783]
[-0.04444434 -0.05508099  0.0850729 ]
[-0.08590011  0.06704953 -0.23136553]
[ 0.08307809 -0.06785377  0.06188956]
[ 0.23043524 -0.18737386 -0.02412985]
[ 0.08424722 -0.02501398  0.2297715 ]
[-0.07136177 -0.12861636  0.02314887]
[-0.11260493  0.08863294  0.09254161]
[-0.0266619  -0.00940799 -0.05273974]
[-0.18966666  0.11833956  0.09772118]
[ 0.14108561 -0.03652841 -0.01147858]
[-0.11236078 -0.18443313 -0.01452147]
[0.0534183  0.0177382  0.10588061]
[ 0.02694574  0.01188242 -0.08920916]
[ 0.1946504  -0.11272497 -0.08367828]
[ 0.15360127 -0.00571581  0.17026639]
[ 0.12927231 -0.17254567 -0.07209315]
[-0.05051048 -0.03207023  0.01202221 -0.02187356  0.04114375 -0.06758719
 -0.00681277 -0.00214212  0.04771056 -0.0736841  -0.00228095  0.0041446
 -0.02116841  0.07795132 -0.10737523  0.00515252]
layer 6 BatchNormalization
16 0.001
[0.98996574 1.0234576  0.9252033  1.0018132  0.9102474  1.0173118
 1.0648123  0.8913952  1.2221398  0.8971035  1.0623999  0.982619
 0.85624415 1.0012475  1.111497   1.1608975 ]
[ 0.00112381  0.04546846 -0.14413898 -0.12639117 -0.04293509  0.06972246
 -0.03781436 -0.1246192   0.00446323 -0.10681672 -0.00712232 -0.0161942
 -0.14373529 -0.06703962  0.05977668  0.01458649]
[ 9.6345380e-02  8.9246649e-03 -1.4679440e+00 -6.5508795e-01
 -1.2011225e-01 -5.1249880e-01 -7.1257341e-01 -5.3590721e-01
  3.8970262e-01 -9.8952418e-04 -3.0513912e-01 -3.8494965e-01
 -1.0436074e+00  3.3490232e-01 -3.2798642e-01 -1.5129040e-02]
[0.5872028  0.6907623  1.4629147  1.4473914  0.59476686 0.6384718
 0.8180417  2.3979747  1.1126894  0.891276   1.2724173  0.41161287
 1.1905344  0.4597935  0.8700797  0.57890654]
layer 7 Activation
relu
layer 8 MaxPooling2D
2 2 2
layer 9 Conv2D
32 16 3 3 valid 1
[ 0.1551042   0.04427282 -0.19642256]
[-0.09156942  0.11191306  0.03449185]
[ 0.09205398 -0.11959141  0.01421733]
[-0.03577048  0.16104333  0.03264965]
[-0.07231846 -0.09824687 -0.12673192]
[-0.05960007 -0.10592968  0.13061637]
[-0.02644589  0.10875598  0.04755434]
[-0.03913597  0.06587011  0.01526835]
[-0.01781696  0.02611357 -0.06956156]
[ 0.04249452 -0.01614989  0.10500194]
[-0.13370061 -0.04775679 -0.05507558]
[-0.06978963 -0.03404194 -0.05898142]
[ 0.04462885  0.24021654 -0.1278462 ]
[-0.04961502  0.00686405  0.06068411]
[-0.03843195  0.06295627  0.01108423]
[-0.02010257  0.01719336 -0.10613839]
[ 0.03117112  0.00137971 -0.00531799]
[-0.0168138  -0.08017492  0.01242916]
[ 0.04020601  0.00022374 -0.06713646]
[-0.05354762 -0.13768943 -0.06918889]
[-0.10822024  0.05411971 -0.00341053]
[-0.03147893 -0.02439684  0.13013706]
[-0.06045257 -0.038219   -0.0782168 ]
[-0.06255846  0.01835311  0.10517024]
[ 0.16153674 -0.23084772  0.02082762]
[0.12267462 0.10081892 0.01637088]
[ 0.04371254 -0.21505591 -0.05413646]
[-0.0902297   0.10709972  0.0245036 ]
[-0.15430512 -0.04918228 -0.03464079]
[0.02364104 0.00295109 0.01626821]
[-0.01771555  0.11415058  0.09826948]
[-0.0004267   0.13197383 -0.01834483]
[ 0.1426664  -0.10766909 -0.10556415]
[-0.06498782  0.06336401  0.1317463 ]
[ 0.00443936  0.04166071 -0.11609837]
[-0.1860091  -0.08502951  0.17859393]
[ 0.07713168  0.13851848 -0.01113649]
[-0.01405075 -0.10849187 -0.10693365]
[0.02927425 0.04391433 0.04584172]
[-0.05866441 -0.03851528 -0.00455628]
[-0.11577304  0.17694813 -0.05092546]
[ 0.1215234  -0.00810085 -0.03804892]
[-0.07004521  0.19404909  0.00651193]
[-0.05406042  0.14590277  0.13684186]
[ 0.12608412 -0.09092187 -0.08566211]
[ 0.0178407  -0.01068377  0.08519175]
[-0.20927913  0.0371237   0.09493493]
[-0.14302756 -0.04844924  0.12951522]
[-0.12811048 -0.1451774  -0.06656723]
[ 1.3615051e-04 -1.3924301e-01 -6.8230748e-02]
[0.00177123 0.13419193 0.05666352]
[-0.00257611  0.07892518 -0.06245241]
[-0.01936165  0.05479928 -0.04998956]
[0.15527858 0.12385226 0.17349926]
[ 0.03868501  0.00062957 -0.04567271]
[-0.06086483  0.1516873   0.00598666]
[ 0.08181588 -0.06748772  0.03044019]
[-0.07974462  0.0068359   0.13565508]
[ 0.05117133 -0.10773455  0.04868703]
[-0.01422154 -0.00143546  0.06806304]
[0.03097465 0.02669919 0.07135066]
[-0.01748289  0.01509507 -0.12420171]
[0.02760148 0.01931517 0.00079271]
[-0.077452   -0.03464887 -0.04297305]
[0.15133962 0.08043198 0.08717397]
[-0.07832827  0.16512223 -0.09113486]
[-0.11656324 -0.02584408 -0.06252011]
[ 0.04970718 -0.15109497  0.16394249]
[0.02637118 0.16663648 0.06906328]
[-0.07459725 -0.0726315   0.00773545]
[-0.13263266  0.07848293  0.05851539]
[-0.11535002 -0.04756225  0.05325177]
[ 0.12752992 -0.00850711  0.02409502]
[ 0.04962396  0.15379253 -0.10110155]
[-0.00328487  0.0270149  -0.04836043]
[-0.13768882 -0.04858204 -0.13161448]
[-0.07890054  0.02021623 -0.0521018 ]
[0.14540394 0.0489719  0.13442211]
[-8.953689e-02 -9.325067e-05  1.111397e-02]
[-0.02104149 -0.09876312  0.04005395]
[0.2337436  0.00891968 0.00756587]
[-0.11529075  0.02104253  0.03547383]
[0.08111621 0.16226412 0.0407864 ]
[ 0.10188115 -0.01334842 -0.01543284]
[ 0.0763688  -0.07366204  0.01508276]
[-0.07875974 -0.08142011  0.06713182]
[-0.13228197  0.02921739 -0.04854906]
[-0.13263546 -0.04886198 -0.01264708]
[ 0.01337477  0.1640954  -0.11462376]
[ 0.08199719  0.00174506 -0.06458683]
[0.00763968 0.12600118 0.07951572]
[-0.06488206  0.03067135 -0.1517749 ]
[-0.06215632 -0.00907055 -0.13667636]
[-0.11773615 -0.12063773  0.11398949]
[-0.0225256   0.03163313  0.0277606 ]
[-0.00836339 -0.0881559   0.18847258]
[ 0.06060966 -0.06581082 -0.16254078]
[-0.07582932 -0.0204807   0.00582577]
[ 0.10136827 -0.1557279   0.07231697]
[ 0.0216547  -0.02345842  0.10164642]
[ 0.00929582 -0.06182747 -0.10608397]
[ 0.04589395 -0.12398098 -0.06361724]
[ 0.13761719  0.07466871 -0.05753645]
[-0.10101555  0.06707799 -0.17335796]
[-0.06119934  0.11421237 -0.04414084]
[-0.08983418  0.14173433 -0.08371455]
[-0.01154116 -0.03950643  0.07702452]
[ 0.01492697  0.15523814 -0.03625934]
[-0.02058544  0.11466397 -0.14124377]
[-0.01050123 -0.01950111 -0.15442127]
[-0.01081058 -0.00198919  0.07760261]
[ 0.07684293 -0.06681123 -0.08237571]
[ 0.04936505 -0.01217567 -0.02829791]
[0.07177492 0.08617052 0.1164698 ]
[-0.16100928  0.06487018  0.09941116]
[-0.02628653 -0.01497878  0.10861011]
[ 0.11442998 -0.05055693  0.17105782]
[-0.06321857  0.04304044 -0.02244014]
[-0.08439181  0.03739785  0.09604994]
[-0.12105791 -0.09533976  0.15253466]
[-0.0578412   0.0788724   0.01479769]
[ 0.09907226 -0.06025857 -0.03203269]
[ 0.02391803 -0.05695268 -0.05297976]
[ 0.05600351  0.02684361 -0.05808075]
[0.07555116 0.02502359 0.185914  ]
[-0.02893751  0.01858197  0.05013569]
[-0.01588756  0.07669832  0.03829091]
[-0.09994864 -0.06278479  0.18381292]
[ 0.1715321   0.07584383 -0.04427546]
[-0.02255666  0.20129013 -0.10966314]
[-0.01159659  0.10638282  0.03263566]
[ 0.04792518 -0.15973264  0.13557814]
[0.10769285 0.00017667 0.16725744]
[-0.0674052   0.0654625  -0.00153093]
[0.01293524 0.05296179 0.07503751]
[-0.06370596 -0.05789845  0.09132387]
[-0.0797016   0.19399893 -0.0457684 ]
[ 0.06803285 -0.09426314  0.0037037 ]
[-0.05502469  0.2574091   0.02900616]
[-0.05307459  0.169782   -0.09479325]
[ 0.13631229 -0.13765536 -0.17541045]
[-0.03312464  0.06222031 -0.1180511 ]
[-0.04545745  0.03968953 -0.0266918 ]
[ 0.02051    -0.09893389  0.04689012]
[0.0811382  0.06472798 0.14387995]
[ 0.10134871  0.10798842 -0.04067715]
[-0.0539984  -0.09934781  0.09129401]
[-0.16741507  0.18619855  0.07854099]
[-0.01414047 -0.15612538 -0.00540078]
[-0.1371273  -0.10021802 -0.05858314]
[-0.03610182  0.00032116  0.05402979]
[-0.10077187  0.0633243  -0.11873824]
[-0.14513192 -0.07569606 -0.1424739 ]
[0.08695039 0.00912177 0.03216109]
[-0.1976889  -0.07231905  0.00889765]
[ 0.04376428  0.05708098 -0.10379235]
[ 0.05137147  0.11119153 -0.03250574]
[-0.07309072 -0.05082655 -0.0075763 ]
[ 0.07684682 -0.0194524  -0.07431989]
[-0.01111081  0.18740153 -0.04107623]
[-0.012253   -0.17093283  0.05334425]
[ 0.01265055 -0.00696475 -0.06848364]
[-0.15409812  0.21037404  0.03484329]
[-0.0009927   0.03962038  0.03245828]
[ 0.17998122 -0.25959593  0.0219418 ]
[-0.10243888 -0.07649278  0.1112055 ]
[-0.07393674  0.00392458  0.06046063]
[-0.07518256 -0.03210751 -0.0125355 ]
[-0.03822444 -0.10780157 -0.0142644 ]
[-0.01400332  0.13637681 -0.06453245]
[ 0.00575018 -0.05722479 -0.04469744]
[-0.12891589 -0.06845619  0.16106032]
[ 0.0302882   0.02239262 -0.01708258]
[-0.01915024 -0.01618695 -0.05378906]
[-0.0586108  -0.04080063 -0.08152862]
[-0.00615721  0.1482503  -0.05591619]
[ 0.07187463 -0.24874736  0.04436349]
[0.02532173 0.01517959 0.12338148]
[ 0.06155223 -0.02429905  0.06570598]
[-0.13118972 -0.0239381  -0.08355233]
[-0.03369058  0.09900498  0.22992215]
[-0.10831334  0.0356646  -0.04442323]
[-0.00843631 -0.10854559  0.05794545]
[ 0.07436272 -0.23400183  0.00368035]
[-0.11284148 -0.00553748  0.04131074]
[-0.0545326   0.111274    0.14387953]
[-0.14732003 -0.05182667 -0.09725305]
[-0.00079267 -0.05616266 -0.03666078]
[-0.1819015  -0.04961774  0.01374166]
[ 0.05665258  0.12822935 -0.08448499]
[-0.134897   -0.08945186 -0.00887888]
[ 0.00261917  0.05226331 -0.03305639]
[-0.09587213 -0.03397221  0.15030424]
[ 0.02010739 -0.11108322  0.20064843]
[ 0.02558524  0.02099474 -0.03221285]
[-0.08815537  0.01314685 -0.06939176]
[-0.11764474  0.07326288  0.01253036]
[ 0.01659201 -0.01985659  0.14124267]
[ 0.1201954   0.07857246 -0.06457715]
[ 0.08681199  0.00312562 -0.07134589]
[ 0.04348978 -0.10703821 -0.07962595]
[-0.01464987 -0.04864039  0.01376986]
[ 0.09369744 -0.14001825  0.18276607]
[ 0.10044579 -0.08031966  0.12988764]
[-0.0146189   0.00956463 -0.05645126]
[-0.16035365  0.00124776  0.09831882]
[-0.05476307  0.06744903  0.00288058]
[ 0.05651724 -0.05801595  0.0025543 ]
[-0.25191268  0.13941395 -0.08958618]
[-0.04960655  0.19229335 -0.13237223]
[-0.05666804  0.01400734  0.03326239]
[ 0.10235134 -0.1677816   0.05440211]
[-0.00840025 -0.04400732 -0.025329  ]
[0.06246518 0.07002026 0.18062073]
[0.04360975 0.00726648 0.08054728]
[0.06438995 0.02576275 0.05732584]
[0.20793809 0.10809146 0.12095918]
[ 0.1437755  -0.01959374 -0.09765609]
[-0.10202344  0.00339466  0.00436173]
[ 0.00746147 -0.09005136  0.17516324]
[0.03513943 0.08975489 0.00432777]
[0.14308608 0.04888072 0.12106796]
[-0.06516079 -0.08930619  0.03614489]
[-0.07211682 -0.07349671 -0.06418678]
[-0.04614543 -0.09616817  0.1195704 ]
[-0.01937084  0.00105788  0.02471403]
[ 0.01020832 -0.06241769  0.07654662]
[ 0.00861522 -0.00218347  0.12202895]
[-0.10818624  0.02770037 -0.06024757]
[ 0.02039528 -0.03920311  0.0504974 ]
[-0.02017851 -0.0172405  -0.05950712]
[-0.01897538 -0.09602524  0.0229322 ]
[0.09091488 0.02449218 0.00712075]
[ 0.08564829 -0.08219926  0.07126715]
[-0.07525301 -0.15662366 -0.06580441]
[-0.1605372  -0.1249488  -0.25652778]
[-0.14286216 -0.07614855 -0.05905137]
[0.02441194 0.23753019 0.10331678]
[0.00540965 0.1425241  0.0392678 ]
[-0.10116575  0.099559   -0.024189  ]
[-0.02389688  0.07363184  0.04517594]
[ 0.15374678 -0.00626706 -0.07535163]
[0.16113508 0.06097852 0.02537022]
[ 0.10188932 -0.00793513  0.03399527]
[0.00743499 0.04993659 0.15488738]
[0.02251373 0.09359638 0.10024804]
[0.01157448 0.16763999 0.04188874]
[-0.12538798 -0.07905956 -0.00328288]
[-0.01339741 -0.04382253  0.06456465]
[-0.16405131 -0.0135563   0.00990871]
[ 0.07695205  0.04897042 -0.11321902]
[ 0.09735899  0.07334954 -0.0542332 ]
[-0.17711857  0.08226842 -0.05489634]
[ 0.02614824 -0.06464794 -0.01849573]
[ 0.00345945 -0.18563369 -0.0937216 ]
[ 0.16890073 -0.02406632  0.16012755]
[ 0.12216745  0.12597977 -0.17669334]
[ 0.06431039 -0.07800127 -0.10890178]
[-0.14353725  0.09441386  0.02297207]
[ 0.01282858 -0.03649339 -0.09331541]
[-0.06319855 -0.015064   -0.08620092]
[-0.06382332  0.05206722  0.00713411]
[ 0.05327763 -0.09492151  0.01877133]
[0.12173116 0.07697991 0.02480436]
[ 0.15550716  0.06440005 -0.00283065]
[-0.0126395  -0.01047342 -0.04328741]
[-0.0046892   0.02125479 -0.06714193]
[ 0.07147178 -0.0923351   0.01276482]
[ 0.02583045  0.02394602 -0.05789731]
[-0.01628725 -0.01853511 -0.18803729]
[ 0.05019047 -0.00456478 -0.05723869]
[-0.07211372 -0.06677184  0.10535789]
[-0.1702906  -0.1160536   0.01124897]
[ 0.08131718  0.02579583 -0.01192761]
[-0.1290135  -0.05874651  0.10572717]
[-0.05655016 -0.1332164   0.0036155 ]
[-0.08433313 -0.23951031 -0.10551915]
[-0.06921433  0.04362255 -0.12492123]
[ 0.11134358  0.12096831 -0.02911383]
[-0.13262565 -0.09192855  0.0611031 ]
[-0.09857413 -0.04008383 -0.11573052]
[-0.12617521 -0.0626561  -0.03271086]
[-0.12029928 -0.08573704 -0.01151731]
[ 0.11667271 -0.10987228 -0.08105128]
[-0.0719844  -0.03560783  0.09444247]
[-0.03339688  0.19607945 -0.09779281]
[-0.00775947  0.07437519 -0.02666155]
[ 0.04257047  0.18025494 -0.05502286]
[-0.11552975  0.15815121  0.07248336]
[-0.02508873  0.0528073  -0.10835444]
[-0.00041867  0.01593972  0.03553266]
[ 0.01808763 -0.20457539 -0.0027134 ]
[0.04503703 0.04889202 0.04496577]
[-0.08110534  0.01838054 -0.07707769]
[-0.11370416  0.11539025  0.03242541]
[-0.1020171   0.08331455  0.10851964]
[-0.047721   -0.11071847  0.04779045]
[0.04830406 0.01690681 0.05527994]
[ 0.13980399  0.05673601 -0.06109102]
[ 0.08915383  0.01707711 -0.11927555]
[0.01633958 0.07381529 0.09277928]
[-0.18364462 -0.08154955 -0.02278567]
[0.0393216  0.14392717 0.09568661]
[ 0.05470144  0.08257667 -0.00089829]
[-0.03135597 -0.00569407 -0.06607503]
[ 0.08852892 -0.07687639 -0.02110049]
[-0.02183682  0.01729083  0.05688845]
[-0.07413618  0.01830453  0.01031169]
[0.08569743 0.01300292 0.09258371]
[-0.01071457 -0.1620421   0.02554028]
[ 0.04659263 -0.03557589 -0.11543717]
[ 0.1847003   0.13821025 -0.12083949]
[ 0.27260754  0.01393935 -0.12576577]
[ 0.01967405 -0.09222875 -0.01936373]
[ 0.25615934 -0.04788584 -0.03056967]
[-0.14903882 -0.21929142 -0.04217987]
[-0.06343914 -0.12476002  0.04566218]
[ 0.08161135  0.0433867  -0.12819493]
[-0.10993681  0.01346577  0.02450773]
[-0.00532131  0.08304314  0.01831996]
[-0.08812346 -0.15698263  0.12134463]
[ 0.05612002 -0.04547373  0.08150905]
[0.07852618 0.02303153 0.11992007]
[-0.11153086 -0.02875561 -0.13953713]
[-0.01878315 -0.17065674 -0.09040704]
[-0.05356463 -0.00990374  0.13987115]
[ 0.00294468 -0.02671781  0.13820626]
[-0.0465825   0.00157378 -0.1153098 ]
[-0.08923376 -0.05016581  0.07991234]
[-0.03181107 -0.06498268  0.09584825]
[ 0.07196074  0.14336605 -0.1694182 ]
[ 0.04551635  0.07699566 -0.23716936]
[-0.14246388  0.12850429  0.08423707]
[-0.03040499  0.05884266 -0.01005102]
[-0.06612598  0.09502319  0.06578708]
[ 0.01169999 -0.16571812 -0.19390036]
[ 0.03368662 -0.11691386  0.15057537]
[-0.09722091 -0.14549364  0.16085131]
[-0.09593596  0.07171889  0.07380931]
[ 0.00994401 -0.01896315  0.18790954]
[ 0.02333552 -0.05315365  0.06591063]
[-0.10879597 -0.05365529 -0.18107532]
[-0.1561511   0.09273266 -0.06274284]
[-0.08458684  0.01159878 -0.0354156 ]
[-0.0899371   0.04494557 -0.07344994]
[-0.09014071  0.00154585  0.15486753]
[-0.1022629   0.02995489  0.04722422]
[0.02234508 0.0135163  0.02793408]
[-0.09894924 -0.03803337  0.09489377]
[-0.0846298   0.01275094 -0.22701506]
[ 0.02832117  0.08601806 -0.00094139]
[-0.1506602   0.00717102 -0.00657938]
[0.05215099 0.09961846 0.10491905]
[-0.09756304  0.0815649   0.11574614]
[-0.14718126 -0.05956662 -0.12146321]
[-0.16866937  0.05508394  0.12540828]
[-0.02749242  0.00624809 -0.00102796]
[ 0.02755078 -0.04015888  0.14072227]
[0.00743406 0.02986998 0.16884412]
[0.06075439 0.01857311 0.06701758]
[-0.03756453  0.13267027  0.00350263]
[0.11573932 0.0395744  0.01893759]
[-0.06819806 -0.20057687 -0.08629002]
[-0.0265443   0.01801876 -0.01763046]
[-0.01910925 -0.09293874  0.10250265]
[0.01211694 0.06081318 0.07998332]
[-0.0711817  -0.11742661  0.05765121]
[-0.12266973  0.00824296  0.00151137]
[-0.0258765   0.13926934  0.04555375]
[-0.08616795  0.17823865 -0.04883402]
[-0.08624493  0.06557466 -0.03642581]
[0.1131478  0.01131092 0.00219363]
[-0.01826047  0.16785939  0.09936268]
[ 0.00561944  0.00122249 -0.04270608]
[ 0.01811741 -0.10522714  0.03325633]
[-0.1398995   0.12058392 -0.24262096]
[-0.03346572  0.06152505  0.05508709]
[0.08448531 0.05154549 0.11181986]
[-0.0123409  -0.06823674 -0.00816053]
[-0.14501941  0.01452815 -0.03728174]
[-0.06462626  0.0291422  -0.06482126]
[ 0.13947706  0.11551804 -0.05934746]
[ 0.07495112  0.05774688 -0.04486066]
[ 0.07991914 -0.1155085  -0.00680015]
[-0.0436132  -0.06979508 -0.0308145 ]
[ 0.05079219 -0.04797197 -0.02183173]
[ 0.12890112  0.05330131 -0.12129396]
[ 0.02551085  0.16193034 -0.12631445]
[-0.04303872 -0.14119533  0.05330756]
[-0.00879774  0.01159403 -0.00619241]
[0.12075464 0.13834015 0.03061811]
[0.02486821 0.02096008 0.10603508]
[ 0.07417168  0.06143442 -0.01452369]
[ 0.02557584 -0.01886188 -0.01433275]
[-0.06148562  0.04344292  0.01014746]
[ 0.12071344 -0.12975915  0.03637146]
[ 0.10022394 -0.21643834 -0.04241492]
[-0.09874514 -0.04094893 -0.08269655]
[-0.03698198  0.09098629  0.08878627]
[-0.0994781  -0.05825019  0.0999368 ]
[ 0.1010492 -0.0883685  0.0377739]
[0.10065517 0.01029353 0.13876782]
[ 0.17855081 -0.10208388 -0.13791454]
[ 0.15556882  0.00650669 -0.1378819 ]
[ 0.0695591  -0.088965    0.06917847]
[0.00328887 0.02803923 0.0089544 ]
[ 0.01764116 -0.00647591 -0.0493402 ]
[ 0.14386584  0.07146716 -0.09117116]
[-0.16860087  0.07901011  0.08089653]
[-0.17038295 -0.0470958   0.00597136]
[-0.04222804 -0.08491907  0.01709367]
[ 0.00327367  0.00830569 -0.01611716]
[ 0.13343868  0.09443933 -0.12721983]
[0.11940426 0.15901406 0.09341215]
[ 0.02048626 -0.01643509 -0.10150681]
[-0.00814408 -0.00661224 -0.09834059]
[-0.03781373  0.06482376 -0.11414701]
[ 0.0809181   0.06804188 -0.0317751 ]
[ 0.00917461 -0.03891082 -0.03889174]
[-0.05158493 -0.00587906  0.07167545]
[ 0.05943529 -0.12283482  0.07243381]
[ 0.17058326 -0.06597669  0.10043594]
[ 0.07125757 -0.05244121  0.01518174]
[0.22376063 0.09067044 0.03550234]
[-0.00600117  0.06240384 -0.02242233]
[-0.16913219 -0.05933148 -0.02449047]
[-0.11421304  0.02593686  0.03245566]
[ 0.00738821  0.09006542 -0.00464015]
[-0.03449252 -0.18041067 -0.16898544]
[-0.06575989 -0.06619474 -0.01677322]
[0.13137464 0.07749121 0.13190873]
[-0.2337138   0.02298743 -0.10088878]
[ 0.00801499 -0.11231301  0.1486913 ]
[ 0.0799841  -0.0810155  -0.00507537]
[ 0.08394384 -0.01526168 -0.12746105]
[-0.06285937  0.04030881  0.02193581]
[-0.02513274 -0.04363283 -0.07337287]
[-0.00019089 -0.14985013  0.04805184]
[-0.153304   -0.08566356  0.05878526]
[-0.15168612 -0.0082786  -0.02284202]
[-0.07789523 -0.05012647  0.03425268]
[ 0.02020137 -0.13512424  0.06922049]
[ 0.14036657 -0.13278337  0.02017067]
[ 0.10338125  0.03482603 -0.03409714]
[ 0.02450952 -0.11992518 -0.11123516]
[-0.17284325 -0.08214161 -0.07398899]
[-0.013325    0.00381004  0.11591041]
[-0.04949361 -0.03316447 -0.05255116]
[ 0.02785516 -0.03620563  0.03671183]
[-0.02516169 -0.04744196  0.08330797]
[ 0.01527729  0.13478649 -0.04324704]
[-0.0040887  -0.08455034  0.01622728]
[-0.02631625 -0.08246777 -0.11792078]
[-0.02167213 -0.09065964  0.07469882]
[-0.06134547 -0.00942329  0.05782999]
[-0.1056798  -0.09679966  0.03500426]
[ 0.17170635 -0.047447    0.09481052]
[ 0.04765868  0.01237158 -0.05832617]
[-0.26824194  0.13004422 -0.15792547]
[-0.04871399 -0.05799505 -0.08607722]
[-0.07722885  0.01431734  0.08910891]
[-0.04876371 -0.11236186 -0.12132903]
[-0.12845172 -0.04860049  0.12564519]
[-0.27757844 -0.04566494 -0.09366249]
[-0.11342452 -0.13392217  0.09961396]
[ 0.0496529  -0.0343041   0.05643172]
[-0.1493219  -0.01112595  0.09253938]
[ 0.07538433 -0.07086199  0.08992446]
[-0.01795818  0.07058773  0.02915582]
[ 0.03589193 -0.05362375 -0.09342253]
[-0.04407595 -0.01382568 -0.04557486]
[-0.08568204 -0.11663073  0.03922272]
[-0.0659427  -0.16562888  0.17891021]
[ 0.13346238  0.05351169 -0.04999297]
[ 0.0538957   0.00842963 -0.02823079]
[-0.09756751 -0.13253677 -0.06469606]
[-0.15466946 -0.01986302  0.01269695]
[ 0.15198912  0.20569402 -0.01853403]
[-0.12326666 -0.0463341  -0.00845932]
[-0.19313832 -0.05989945  0.12397992]
[ 0.02583404 -0.0742543  -0.00589718]
[-0.05601386 -0.03811017  0.09902495]
[-0.0851597   0.07225244  0.09521413]
[ 0.22257751  0.11753843 -0.1649924 ]
[-0.11374643 -0.04313996 -0.00222769]
[ 0.03024132 -0.04576119 -0.09839652]
[ 0.09162984 -0.08093835  0.02650336]
[-0.05204656 -0.01304725 -0.03799509]
[-0.15708686  0.05050602  0.12871285]
[-0.09451385 -0.016378   -0.00687258]
[-0.12329368  0.03749675  0.01830296]
[ 0.11104289 -0.01588602 -0.081839  ]
[ 0.102029    0.01476507 -0.00670074]
[-0.09837251  0.03700754 -0.11878298]
[-0.06436522 -0.1330093   0.11764672]
[ 0.10477246  0.06868526 -0.07484131]
[ 0.11894302  0.06930424 -0.12972751]
[ 0.08009954 -0.02424229  0.04996048]
[ 0.16956875  0.01916913 -0.0566325 ]
[-0.06093262  0.11253311  0.05086408]
[-0.04707839  0.00231273 -0.01985029]
[-0.01290621  0.11092111 -0.00191708]
[-0.10881868 -0.07614248  0.08892223]
[ 0.09669279 -0.08117776  0.02998708]
[-0.16141005 -0.13071403  0.29082465]
[ 0.07285689 -0.09693698  0.09031894]
[ 0.2426892  -0.06902859  0.08916271]
[ 0.05025417 -0.03308456  0.07221472]
[0.04700194 0.07371671 0.10482027]
[-0.05672829  0.07564776  0.10776062]
[ 0.15249227  0.11184751 -0.00095224]
[ 0.01769426 -0.08891334 -0.06200475]
[-0.079557   -0.18875071 -0.14550726]
[-0.0439952   0.12146205 -0.00722637]
[-0.18129595 -0.06685444 -0.01667802]
[0.02069983 0.10629683 0.00920312]
[ 0.18828933  0.11708161 -0.1304376 ]
[ 0.01230272 -0.03769998 -0.11257359]
[-0.00813904 -0.11740011 -0.0892769 ]
[-0.01740485 -0.1322932  -0.07216586]
[ 0.06826641 -0.0079217   0.15951642]
[-0.07174088  0.02688524 -0.0743764 ]
[-0.02786858  0.02153012  0.15961619]
[-0.00352039 -0.0847906   0.01073218]
[-0.03535394  0.08396309  0.14769429]
[0.00869388 0.01020374 0.0119507 ]
[-0.1441614  -0.05495173 -0.12190484]
[ 0.01130566 -0.00094342 -0.1388183 ]
[-0.02105467 -0.05965393  0.07330687]
[-0.12862475 -0.15546417  0.03112046]
[-0.08517268 -0.08432468 -0.08194596]
[0.01527416 0.04887041 0.0151318 ]
[ 0.17942642 -0.05670857 -0.06313834]
[-0.01422055 -0.21654783  0.1702764 ]
[-0.13106447 -0.11703796 -0.08355913]
[ 0.00391465 -0.01908063 -0.00876062]
[-0.03774628 -0.2315663  -0.17561372]
[-0.11637476 -0.08140358  0.00751512]
[-0.00031709 -0.06279577  0.00250136]
[ 0.10189373 -0.07343117 -0.03890712]
[ 0.13094755 -0.01337946  0.04921072]
[ 0.06369489 -0.09196475 -0.00303226]
[0.03634217 0.00877979 0.12513869]
[0.04240729 0.04283952 0.03847467]
[ 0.09186995 -0.05355303  0.19485821]
[0.15422642 0.02468369 0.20859322]
[0.05360482 0.0101095  0.06917633]
[-0.00749345  0.04647661 -0.04804175]
[-0.03000483 -0.1882604  -0.02892831]
[-0.00816178  0.00822415  0.09020799]
[-0.09858997  0.02298648  0.06974934]
[-0.12903029 -0.07951032 -0.01154102]
[-0.03147671 -0.02710659  0.03024234]
[-0.00748062  0.09176821  0.03095189]
[-0.08950361 -0.06271051 -0.11297891]
[ 0.03596752 -0.0912848   0.10738545]
[-0.07643797  0.01982314  0.03917127]
[-0.04730763 -0.02600806  0.01145631]
[-0.01360397 -0.12932114  0.07634786]
[ 0.07358043  0.1174084  -0.03365537]
[ 0.06696121 -0.00979372  0.00224707]
[-0.04121977  0.04034942 -0.1083338 ]
[ 0.04476078 -0.00052965 -0.0684806 ]
[ 0.11207163 -0.09253068  0.05533875]
[0.06280056 0.00647935 0.00391028]
[-0.12334017  0.00570861  0.11809567]
[0.01734984 0.08373276 0.09430967]
[ 0.1686967   0.16250683 -0.12596859]
[ 0.11036428 -0.01752667 -0.00193939]
[ 0.04825055 -0.13831621 -0.13269295]
[-0.04022049 -0.05963757 -0.14682502]
[-0.01010719  0.06413407 -0.26521927]
[-0.08975624 -0.11693772 -0.11198549]
[ 0.10330369 -0.06778734 -0.03813603]
[-3.0279104e-02 -5.0141738e-05  1.3739213e-01]
[-0.19754101 -0.13493226  0.07281114]
[ 0.0965543   0.01288393 -0.08681259]
[ 0.02066827 -0.02555279  0.01830633]
[-0.00201011 -0.02114436  0.00483076]
[ 0.16623135  0.11671522 -0.10398396]
[-0.00054528 -0.02459488 -0.06526373]
[-0.19892687 -0.07072809 -0.01473257]
[ 0.0806083  -0.09006035 -0.02602764]
[-0.02289033  0.02040936  0.05304796]
[ 0.0800807  -0.11769266 -0.07309593]
[ 0.01070305 -0.1102673   0.00962045]
[ 0.10166554 -0.19225544 -0.08753253]
[-0.03476417 -0.05435181  0.06896145]
[-0.03284548 -0.13975284 -0.18393557]
[-0.02983863  0.02600779  0.09734187]
[ 0.07756103 -0.02547674 -0.02357433]
[ 0.10599618 -0.03713524 -0.12486257]
[ 0.02669528 -0.08487173 -0.13408396]
[-0.07305942 -0.09969163  0.05819888]
[-0.04140506 -0.06899422  0.01172297]
[ 0.02438337  0.08049848 -0.00614149]
[-0.08717682 -0.15434246  0.18303469]
[ 0.06254477 -0.09425347 -0.0550356 ]
[ 0.07801497  0.07742538 -0.05276426]
[-0.07927686  0.03083932  0.02493842]
[ 0.05054796 -0.05954101  0.1561274 ]
[0.14406165 0.07952899 0.14808701]
[-0.23064648 -0.08076105 -0.00520351]
[-0.05670855 -0.00994232 -0.01529356]
[ 0.05974615 -0.06835633  0.05044357]
[-0.01059273  0.17894445  0.10592334]
[-0.01827084  0.10433831 -0.04121654]
[ 0.06510305 -0.05968725 -0.00622286]
[-0.00592603 -0.09798682 -0.03017625]
[ 0.01250246 -0.13528945  0.10957641]
[-0.14029236 -0.09197617  0.0950923 ]
[0.03535631 0.0270441  0.00444425]
[-0.03709038  0.01702447 -0.09648946]
[-0.05009308  0.07866365  0.11757478]
[ 0.18268538  0.02415588 -0.02950351]
[ 0.03830849 -0.06742124  0.1311071 ]
[ 0.00725549 -0.11815264 -0.0682786 ]
[0.07439404 0.17502332 0.043799  ]
[ 0.09721995 -0.07519958  0.01891043]
[-0.01060039 -0.09055272 -0.14986436]
[-0.00585649  0.06246305  0.08586233]
[0.16807337 0.17802031 0.05098478]
[-0.10028059 -0.13237666 -0.01230593]
[ 0.07219467 -0.09558666  0.11819803]
[-0.05227007 -0.08002534  0.10285736]
[-0.05311212 -0.00289222  0.14174983]
[ 0.0225219   0.12321156 -0.0246461 ]
[-0.0177184   0.0774911   0.03834914]
[-0.02072663  0.00085549  0.11244885]
[-0.05033386  0.02231875  0.14368981]
[0.06267218 0.11196879 0.09224958]
[-0.08436207  0.04304632 -0.00357899]
[-0.14150696  0.0275689   0.05743453]
[-0.15928513  0.02123936 -0.01722685]
[-0.03775205  0.01472824  0.11687078]
[0.05563939 0.07558645 0.03672244]
[-0.15909879  0.05306834  0.03152684]
[ 0.07814004 -0.06796046  0.02327575]
[-0.04425075  0.02031025  0.14486584]
[ 0.00783936  0.05742262 -0.0175307 ]
[-0.02664367  0.1498011  -0.08328708]
[-0.0004888   0.18846416  0.12835956]
[-0.14989209 -0.06683259 -0.08395099]
[ 0.08335387  0.06774548 -0.09732617]
[-0.02133161  0.10842153  0.07578025]
[-0.14465913  0.03840525 -0.16758008]
[-0.00616864  0.11310233 -0.04513666]
[-0.11646433 -0.00267612  0.07559826]
[-0.06054661  0.20276739 -0.08386178]
[ 0.12642361 -0.0856336   0.00090349]
[-0.0575148  -0.02405875  0.11893559]
[ 0.02183427  0.01330822 -0.05096195]
[-0.01646733 -0.09189571 -0.14113379]
[ 0.05787591 -0.17150363 -0.07674426]
[-0.17870696  0.04907274 -0.01061292]
[-0.11652365 -0.1347273  -0.03924147]
[0.03727717 0.14715412 0.03109729]
[0.0037508  0.03922341 0.13465309]
[ 0.06179798  0.07647928 -0.02973531]
[ 0.05020459 -0.05366879 -0.00934581]
[-0.09654082  0.05589994 -0.0751131 ]
[-0.05492461  0.05480608  0.12294438]
[-0.16731861  0.01619977 -0.10843117]
[-0.04371443 -0.1402195  -0.14391878]
[ 0.0733203   0.15958595 -0.06303191]
[-0.03246845 -0.02058759 -0.20576438]
[-0.0383384   0.11911385 -0.03668437]
[-0.11881812 -0.00842757  0.00065604]
[ 0.05969754 -0.02091749 -0.07016356]
[-0.23479113  0.00490964  0.06096834]
[ 0.03805319 -0.01982776 -0.00121155]
[0.0330927  0.14245541 0.08180768]
[-0.12000693 -0.03864031 -0.08623733]
[ 0.08879787  0.09281547 -0.1065078 ]
[ 0.04559437  0.14687224 -0.2146989 ]
[ 0.25757053 -0.03212473 -0.05095468]
[ 0.09857846  0.08307664 -0.16372946]
[-0.01921732  0.04970519 -0.06127551]
[-0.07167275  0.14186391  0.02443632]
[-0.02087491 -0.00937611  0.14474128]
[0.00479428 0.08343387 0.00538671]
[ 0.04878055  0.05988372 -0.01006908]
[ 0.07136738  0.00966009 -0.16522558]
[0.00925247 0.06927767 0.00420982]
[ 0.06014014 -0.04215021  0.0278612 ]
[-0.08641472 -0.09371886 -0.05396952]
[ 0.05995297 -0.11632382  0.03571051]
[-0.12768348 -0.0186433  -0.06317259]
[ 0.00977816 -0.11003257  0.00987202]
[-0.02839048 -0.10747515 -0.02161535]
[ 0.14205284  0.02386907 -0.11215395]
[-0.15177834  0.11126994 -0.07527712]
[-0.1298105   0.27245218 -0.12683481]
[ 0.11874092  0.02984084 -0.0759597 ]
[-0.12848365  0.09280313 -0.07195313]
[-0.08380894  0.10480647  0.08962234]
[ 0.08052226 -0.06326429  0.10804897]
[-0.02485448 -0.10791446 -0.07443   ]
[-0.04157047 -0.03786552 -0.03566122]
[ 0.03511017  0.20715043 -0.14813833]
[-0.13101397 -0.1064394  -0.05509377]
[-0.1596078  -0.02455052  0.05898323]
[ 0.11608979 -0.00849364 -0.00684395]
[0.13302976 0.07053871 0.02657217]
[ 0.14761372 -0.20069377  0.04168879]
[-0.00440264  0.00813203 -0.02152028]
[-0.00080093 -0.07581676 -0.06691543]
[-0.10006516  0.04615031  0.10753928]
[ 0.03586623  0.14107487 -0.03844265]
[-0.08452658  0.03713543  0.00121439]
[-0.08657547 -0.07319368 -0.05087671]
[-0.10511587 -0.06871451 -0.01380176]
[-0.00723213 -0.03983156 -0.01691998]
[-0.06074885 -0.01995938  0.14595158]
[ 0.07277679 -0.01292323  0.09274733]
[ 0.0589909  -0.11131575  0.01052831]
[ 0.07786632 -0.03200717  0.1613537 ]
[ 0.03290369 -0.11824728  0.06673838]
[ 0.15043718 -0.05388692  0.16290821]
[-0.07644247 -0.00299499 -0.11122517]
[ 0.07977444 -0.00775211  0.09069335]
[-0.06970797  0.0750479  -0.07119611]
[ 0.04564938 -0.01015407 -0.01968578]
[-0.06611715  0.05169113  0.04665174]
[ 0.03910922 -0.05443555  0.00751586]
[-0.01678726 -0.08585111 -0.03778592]
[0.16549961 0.01491052 0.16279262]
[-0.10312051  0.14773594  0.0112489 ]
[-0.04859319  0.01864973 -0.10546351]
[ 0.03807938 -0.02251818  0.04083963]
[-0.03058946  0.13540138  0.04428426]
[ 0.12987362 -0.05301601 -0.05416241]
[-0.11792865 -0.08005973  0.13193527]
[-0.13165697  0.05483462  0.05836103]
[-0.07998054  0.06321138  0.01694952]
[0.00475359 0.0116893  0.06402467]
[ 0.06701679 -0.10836558  0.06386589]
[ 0.07109889 -0.15729105 -0.04247325]
[-0.06198154  0.12420131  0.17716601]
[ 0.0235766  -0.10727907  0.1275487 ]
[-0.09435643 -0.07868005  0.09606739]
[-0.02287049  0.04638391 -0.03719983]
[-0.0741636   0.04797557 -0.0397402 ]
[ 0.15621448  0.06237628 -0.1278129 ]
[ 0.19198936  0.22812079 -0.12860885]
[-0.04042744 -0.09697776 -0.19714472]
[-0.15345189  0.0212449   0.10402492]
[-0.02536505 -0.12422427  0.0015716 ]
[0.04746906 0.07062401 0.03192388]
[ 0.12327543 -0.05447737  0.0322896 ]
[-0.08703482  0.22656515 -0.04423044]
[-0.00702786  0.04733656 -0.03578177]
[-0.11959226 -0.00205803 -0.04175768]
[ 0.05152165 -0.12663111  0.18780397]
[-0.01219796  0.14242376  0.0341666 ]
[ 0.03349356  0.10210171 -0.05380051]
[-0.11750014 -0.14009455  0.01631459]
[-0.12810373  0.01233207  0.00399109]
[ 0.07383369 -0.06571297 -0.08881025]
[-0.05252571 -0.08726819 -0.00771066]
[-0.19203866  0.04571778 -0.02519743]
[-0.0496312  -0.10952314  0.19308168]
[ 0.00963089 -0.00801045 -0.1956532 ]
[-0.03924788 -0.01897451 -0.05323535]
[0.00656867 0.05780667 0.03196914]
[ 0.04906417 -0.008349   -0.04666119]
[-0.08926392  0.22687516  0.03229977]
[-0.00797447 -0.11828938 -0.16173679]
[ 0.07354435 -0.05462043  0.00612667]
[ 0.03549694 -0.01429824  0.01178441]
[-0.01395965 -0.06386441 -0.04773475]
[ 0.12241498 -0.03180499 -0.1259872 ]
[ 0.01550936 -0.09085947  0.07448965]
[-0.03476867  0.0795681  -0.05385884]
[-0.00516348  0.03070848 -0.03304597]
[ 0.03756521 -0.01796797  0.10406165]
[ 0.05708475 -0.11058681 -0.06278915]
[-0.03555921 -0.04527243  0.11895276]
[0.02762322 0.00743651 0.11844602]
[-0.18933666 -0.13612185  0.05972623]
[ 0.11419281 -0.06560979 -0.12130532]
[ 0.03133815  0.01942855 -0.10114204]
[-0.06998923  0.02772005 -0.13245289]
[-0.06960576  0.0330045   0.08722799]
[-0.18716937 -0.01330559  0.10582644]
[ 0.02387008 -0.09414683 -0.11829922]
[ 0.01238464 -0.03327383 -0.04195936]
[-0.19776858 -0.02101431 -0.04672059]
[-0.24557959  0.06056628 -0.07266555]
[-0.00038619 -0.11242028 -0.10171186]
[ 0.18110281 -0.02296448 -0.05869941]
[ 0.19289586 -0.20060106  0.01956105]
[0.05949908 0.10714503 0.12203777]
[-0.01879408 -0.09384936 -0.05675881]
[-0.08447018 -0.13239038 -0.0008778 ]
[-0.03889691 -0.08106506  0.07521661]
[ 0.03470954  0.14036232 -0.07763587]
[0.03045252 0.0768334  0.05904222]
[-0.01020141  0.07138386  0.0218688 ]
[ 0.01630253 -0.02482426  0.08176054]
[-0.1329442   0.2098044  -0.06112125]
[0.04613607 0.03202336 0.08104964]
[-0.08861289  0.0094888  -0.05817107]
[-0.04927393 -0.19197424  0.12970142]
[-0.05607578 -0.13332546 -0.10234844]
[ 0.14208284  0.05785425 -0.09089521]
[ 0.01834969 -0.11607294  0.0354088 ]
[-0.02384477  0.14597018 -0.06880496]
[ 0.09959535 -0.13280977 -0.08164699]
[ 0.1210221  -0.08163546  0.0579945 ]
[ 0.11986106 -0.01483175  0.00889235]
[-0.02057658  0.07222776  0.06712315]
[-0.02655812  0.08668213 -0.02101606]
[-0.08998901 -0.03749016  0.01127682]
[-0.00732437 -0.01630433  0.07548418]
[ 0.04576978  0.12039728 -0.02967687]
[0.05618758 0.02735136 0.11877587]
[-0.01878596 -0.06008164  0.09230746]
[ 0.15447383 -0.04747404 -0.11881715]
[-0.05725072 -0.01073437  0.08187588]
[0.02636419 0.01006955 0.03178888]
[-0.02950064 -0.19264102 -0.03472366]
[-0.02179907  0.13687132 -0.02994948]
[-0.02851667 -0.00770523 -0.01506402]
[-0.17173794 -0.06659949 -0.11399036]
[ 0.08511407 -0.16317604 -0.14322557]
[ 0.0313829  -0.02500045 -0.05532175]
[ 0.19496433 -0.11295    -0.08100645]
[ 0.12367553 -0.00804121 -0.01249956]
[ 0.12021547 -0.03911801 -0.0232348 ]
[ 0.04668586  0.05481942 -0.04217456]
[0.196957   0.01513842 0.12958182]
[ 0.1664197  -0.04566872 -0.06023429]
[0.07621526 0.07319981 0.02555727]
[0.14403586 0.14785424 0.02450428]
[ 0.07899319  0.01381356 -0.0660817 ]
[ 0.10900286 -0.14187396 -0.16709062]
[-0.04621544  0.013607   -0.0118664 ]
[ 0.1343378  -0.14206174  0.07725643]
[-0.05180289 -0.02473589 -0.03653911]
[-0.11005062 -0.0828895   0.1636059 ]
[0.03444914 0.03423807 0.03308789]
[ 0.00146857 -0.02880787  0.12934099]
[ 0.0069124  -0.07486199 -0.02706093]
[-0.08490593  0.04680492 -0.06276374]
[ 0.06518414  0.01702063 -0.09070251]
[ 0.18413043  0.0909376  -0.0552302 ]
[ 0.27997324 -0.13162972  0.01792262]
[-0.04600506  0.0130279   0.06448042]
[-0.01795706 -0.01871176 -0.02849043]
[-0.01998089  0.05864339  0.09006891]
[ 0.15015195 -0.03619272 -0.14252871]
[-0.03358281 -0.02182661  0.03686765]
[ 0.07727923 -0.0678689   0.0239829 ]
[ 0.14499909  0.07855217 -0.05825633]
[ 0.04075129 -0.15910952 -0.04228772]
[-0.05084288 -0.09870262 -0.0312995 ]
[-0.03307023  0.03319579 -0.01181563]
[ 0.03805865 -0.07331139 -0.15259713]
[ 0.14506346 -0.05424212 -0.02551736]
[-0.13241665 -0.10061189 -0.07580697]
[-0.15090765  0.0386657   0.06690051]
[ 0.00473426 -0.02197608 -0.08589076]
[ 0.13644506 -0.1419646  -0.10666659]
[ 0.10726242 -0.0385258  -0.1693457 ]
[ 0.06856883 -0.03670944 -0.0274056 ]
[-0.09026298 -0.02246509 -0.02909576]
[ 0.06377863 -0.02025077  0.05062816]
[ 0.03489682 -0.02761959 -0.09161633]
[-0.17988618  0.04800241  0.02034282]
[ 0.07023957  0.07276112 -0.01596208]
[-0.13078703  0.09689116  0.11654654]
[ 0.09501163  0.03251556 -0.03794585]
[ 0.06332585  0.04550847 -0.02420693]
[0.03491089 0.03101025 0.02926832]
[0.03336718 0.13186814 0.05326518]
[-0.08606735  0.17202401  0.04903669]
[-0.05151945  0.15748991 -0.08688878]
[-0.04957323 -0.07345846 -0.04095266]
[-0.18000539  0.01117727  0.0778971 ]
[-0.04576633  0.06063791  0.12133344]
[ 0.04291751 -0.09822223  0.04223946]
[ 0.10202903 -0.03217465  0.1308431 ]
[-0.0877129  -0.07738435 -0.01481213]
[-0.15636736  0.05340454 -0.04267234]
[-0.03933078  0.06906027  0.02692714]
[-0.05604055 -0.14933199  0.05154377]
[-0.00425258  0.11781577 -0.12227678]
[ 0.14282657 -0.0650307   0.0844744 ]
[ 0.14394043 -0.10348495 -0.07092065]
[ 0.11984549  0.10562519 -0.05866551]
[-0.10826813  0.05114278  0.06806348]
[-0.01807475 -0.08104966 -0.06663736]
[0.09709632 0.15197285 0.04102158]
[-0.06597997  0.11492214  0.00365418]
[-0.1065422   0.00216029 -0.04012666]
[ 0.02256308 -0.0893871   0.03419687]
[ 0.13338974 -0.05045373  0.03651213]
[0.05769732 0.00744438 0.04445314]
[ 0.00202037  0.23779796 -0.01844412]
[-0.0799937   0.14638478  0.13261932]
[ 0.0983467  -0.10677636  0.07673848]
[ 0.04800012 -0.02772127  0.06435828]
[-6.3173720e-05 -4.3275461e-02 -1.7312283e-02]
[-0.16229981  0.03478029 -0.02746025]
[-0.07607947 -0.02972647 -0.00486919]
[-0.06310456 -0.00205168  0.01744903]
[-0.05805987 -0.01424165 -0.19825113]
[-0.17937128  0.01546134  0.17567518]
[ 0.05981601 -0.21653692 -0.09876481]
[-0.08936746  0.0036756   0.17863601]
[-0.05746683  0.0451271  -0.26676035]
[-0.03454706 -0.14864588  0.00052257]
[ 0.00978305 -0.06360569  0.08829731]
[-0.03164617 -0.05556916  0.03475853]
[ 0.07624905 -0.05986136 -0.07553522]
[-0.12854694  0.01151097  0.10996408]
[-0.04975952 -0.15073347  0.00425181]
[-0.09963286 -0.00115326 -0.13615733]
[-0.04303653 -0.01639804 -0.02207841]
[-0.0965887   0.05146077  0.01411718]
[-0.0822668  -0.05810539  0.0752272 ]
[0.00573579 0.08943653 0.16681923]
[-0.06761942 -0.03216964 -0.08594194]
[ 0.06575797  0.02888821 -0.19556494]
[-0.13120058  0.0342072  -0.07636059]
[ 0.11158539 -0.10941936  0.03958992]
[ 0.08571845 -0.04587917 -0.129185  ]
[-0.08009481  0.10576602 -0.06469414]
[-0.05284467  0.06878285  0.13239989]
[-0.07678404  0.037308    0.07971244]
[-0.06416297 -0.01605307  0.0032505 ]
[-0.13576704 -0.16459902 -0.05922906]
[ 0.0612484   0.1035322  -0.06009164]
[-0.05355921  0.03877111  0.07568794]
[-0.05074607 -0.02607054  0.01769479]
[ 0.14245416 -0.07721009  0.13095686]
[ 0.1156594   0.06551443 -0.05889327]
[ 0.0202301  -0.20123157 -0.02592082]
[-0.09697243 -0.0392078  -0.11753934]
[-0.0609575   0.08620358  0.03964135]
[-0.04770681 -0.09884202  0.00685058]
[-0.03406434 -0.16109852  0.01287488]
[ 0.04817863  0.07506187 -0.03332825]
[-0.14635225  0.03490901  0.10991691]
[0.04715399 0.0605472  0.12956977]
[-0.05048481  0.08980941 -0.09047332]
[-0.06516564  0.10699014  0.09461554]
[-0.05086317  0.06108172 -0.04721336]
[-0.13755776  0.08052462  0.15311581]
[-0.09620816  0.02358135  0.02175309]
[-0.07715601  0.22541909 -0.10985614]
[ 0.06974864  0.06163249 -0.06923468]
[ 0.04655375  0.1437251  -0.12187185]
[ 0.09668552 -0.02020296 -0.0728227 ]
[-0.10488775  0.05992643  0.26999685]
[0.06179518 0.04941728 0.02085976]
[-0.03200929  0.07971185  0.15594217]
[ 0.01230451  0.03566716 -0.11149327]
[-0.05821253 -0.01938378  0.13645163]
[-0.0387785   0.00760621  0.00525057]
[-0.00827656 -0.0010707   0.10051077]
[-0.13800809  0.09979172 -0.1143371 ]
[-0.03561323 -0.13712543 -0.01118299]
[0.09645218 0.172567   0.2009883 ]
[-0.09118889 -0.08272255 -0.16944185]
[-0.07377272  0.15434596 -0.11208665]
[ 0.07342623  0.06447404 -0.01881542]
[-0.04308987 -0.063375    0.10350993]
[-0.04464098 -0.11635178  0.09147952]
[-0.07027353  0.06857348  0.1624589 ]
[-0.05970665  0.02738832  0.05166267]
[ 0.19250584 -0.01326974  0.00568712]
[-0.03569964  0.1198148   0.05899303]
[-0.05199018  0.05541979 -0.05506539]
[ 0.05449577 -0.07742148 -0.01297706]
[-0.05046126  0.12725411 -0.00918788]
[-0.24592958  0.07065503 -0.0369307 ]
[ 0.10422822 -0.00036562  0.09986582]
[-0.03728489 -0.04957481  0.01163537]
[-0.05012747 -0.10601854 -0.13496776]
[ 0.11269514 -0.00103398 -0.03349132]
[-0.10396627  0.01220282  0.00860687]
[ 0.0822055   0.01531109 -0.07708566]
[ 0.08239374  0.13850233 -0.07519677]
[-0.19428524  0.01353695 -0.08510411]
[-0.09170885  0.10785092  0.05233339]
[-0.03170675  0.03906288  0.01557993]
[-0.01724021 -0.00676588  0.08412665]
[ 0.10859696  0.03055309 -0.12801597]
[-0.0959282  -0.12117375 -0.11507991]
[0.17870142 0.010913   0.09527998]
[0.1393399  0.04526383 0.02459448]
[ 0.02881858  0.06202645 -0.14309776]
[ 0.04738405 -0.08359753  0.03506055]
[0.02896318 0.02504385 0.17478971]
[-0.20073126 -0.01608283 -0.00221622]
[-0.08156953  0.095558   -0.05406246]
[-0.04680425  0.12226262  0.03824541]
[ 0.16355197  0.04669354 -0.11524173]
[0.14845893 0.01354615 0.06820921]
[ 0.04275495 -0.03598186 -0.05475047]
[-0.07507845 -0.15655038 -0.14449166]
[ 0.24665143  0.25816634 -0.0156416 ]
[ 0.04418458  0.02486342 -0.08482448]
[-0.06359706 -0.12477335 -0.01946213]
[-0.047128    0.10846249  0.03013749]
[-0.03211423  0.15246004 -0.09505311]
[ 0.09602629 -0.03850888 -0.06015644]
[-0.07697474 -0.02757533 -0.04740173]
[-0.00564068 -0.10045297  0.05832966]
[-0.02553636  0.03873349  0.1985312 ]
[0.03172829 0.01070974 0.00120464]
[-0.08057169  0.12451781  0.00283105]
[0.01712267 0.09256049 0.12871835]
[0.00520121 0.12336718 0.09214981]
[-0.05247316  0.08544797 -0.03794181]
[-0.02558224 -0.03329002  0.02513875]
[ 0.01533269  0.0060711  -0.06605577]
[-0.01960431  0.10651374  0.10396457]
[0.07684723 0.02552393 0.04559563]
[-0.06190177  0.03104086 -0.01967602]
[-0.19263187 -0.06802303 -0.23284334]
[-0.02286845 -0.13849981  0.04478171]
[-0.05687925  0.04749651  0.11697651]
[ 0.10435601 -0.08735721 -0.07175894]
[-0.12334373 -0.09436791  0.22170705]
[-0.03923973  0.1043836   0.06503498]
[-0.11708696 -0.10170511  0.09686737]
[0.03838568 0.06805378 0.02348579]
[-0.0155905   0.08973117 -0.1394489 ]
[-0.11554774  0.02483882 -0.13160077]
[ 0.0119935  -0.12159355 -0.03300197]
[-0.07887477 -0.05842651 -0.14977106]
[ 0.09506068 -0.06698491  0.00261219]
[-0.02855834  0.02410828  0.01698085]
[-0.06566624 -0.03147762 -0.12903005]
[-0.09071111 -0.09829598  0.07298258]
[-0.16163021 -0.0532035   0.19577792]
[-0.14322005 -0.23547709  0.11705308]
[-0.07186097 -0.18693815  0.24645397]
[-0.08654167 -0.06269626 -0.15701252]
[-0.01288852 -0.04950929  0.12672423]
[ 0.03383601  0.05820595 -0.05475289]
[-0.14316058 -0.17716914  0.06923959]
[-0.04883609 -0.0011963   0.02905145]
[-0.04016027  0.07441777 -0.10650495]
[-0.07809924  0.04306704 -0.10525601]
[-0.10687776 -0.05698649 -0.10407136]
[-0.00478156  0.06373292  0.0678478 ]
[0.0585084  0.0987039  0.08294731]
[-0.00229583 -0.02087287 -0.22883901]
[-0.01563364 -0.09681607  0.06651039]
[ 0.10311493 -0.05828075 -0.00493004]
[-0.04628816 -0.05208874  0.17343193]
[0.00383523 0.11205225 0.01225165]
[ 0.02622646  0.08092314 -0.04783016]
[-0.02294158  0.02130935 -0.21084999]
[ 0.09870086  0.10874497 -0.11503651]
[-0.0846035   0.04941709  0.03795272]
[ 0.04561066  0.07129661 -0.00575673]
[ 0.13818109  0.12688377 -0.00835193]
[ 0.02993948 -0.02241883  0.09979735]
[0.00555879 0.14059258 0.05221816]
[0.04646994 0.10139342 0.07486007]
[0.06212044 0.00077853 0.07835782]
[-0.04776968  0.10458843 -0.0568993 ]
[ 0.11461686 -0.07892134 -0.1936119 ]
[-0.02015867 -0.10023251 -0.00241177]
[-0.00738966 -0.11288292 -0.0186116 ]
[ 0.07617865  0.13159029 -0.08930969]
[0.03188721 0.08130726 0.11030626]
[ 0.1014882  -0.11234473 -0.13897552]
[0.15782107 0.04306518 0.12057317]
[ 0.00965105  0.1213867  -0.06441756]
[ 0.08125932  0.00976858 -0.14311649]
[ 0.07530577 -0.01758194 -0.06904191]
[-0.11512538  0.02634401 -0.07097302]
[ 0.08573601 -0.03313084  0.09301105]
[ 0.03173335 -0.0528224  -0.16312252]
[-0.17613684 -0.05846092  0.19090065]
[-0.08549197 -0.04718566  0.06632899]
[-0.14404751 -0.03744166  0.23440349]
[ 0.16997711 -0.05956377  0.18306635]
[-0.02895878 -0.10591283  0.06736437]
[-0.00154563 -0.0095856  -0.11782926]
[-0.03661845  0.11259712 -0.03682942]
[ 0.13117824 -0.21177533  0.02522674]
[ 0.05680782 -0.11488885 -0.0677366 ]
[-0.06010815  0.18937421 -0.0456748 ]
[-0.0392595  -0.07333617 -0.14154518]
[ 0.12103893  0.03348269 -0.13536872]
[-0.02682969 -0.08989619  0.04605048]
[-0.0031429  -0.09720692 -0.04831652]
[ 0.07653671 -0.01202915  0.01039954]
[-0.12625751 -0.05625167  0.06652075]
[-0.00168677 -0.02371757  0.02940873]
[-0.04592179 -0.10078703 -0.09567244]
[ 0.05916691 -0.05552574  0.0352997 ]
[-0.00795469  0.0039786   0.16095807]
[ 0.04082092 -0.00223239  0.09821718]
[0.05090939 0.0705874  0.09878758]
[-0.14009404  0.03850074 -0.00946443]
[ 0.22642721 -0.03176711 -0.18237625]
[-0.02789136  0.05382017 -0.04429523]
[-0.11452357 -0.02936493  0.11558303]
[-0.00504068 -0.0762139   0.11779375]
[ 0.05639813 -0.09424543  0.14361231]
[-0.01448129  0.06656609  0.00953156]
[-0.09715882 -0.00707013  0.00958399]
[-0.1138972  -0.15468633 -0.14952144]
[-0.03604129 -0.11334168  0.05824403]
[-0.04188686  0.07543753 -0.11554384]
[-0.1297188  -0.05463614  0.03965449]
[-0.0490074  -0.00898658  0.06911155]
[0.10945822 0.0445891  0.13847077]
[ 0.12424346  0.11694649 -0.1008263 ]
[ 0.07550742 -0.01155681  0.01052966]
[ 0.01821047 -0.03869842 -0.19827951]
[0.12242651 0.01011834 0.02581009]
[ 0.15324257  0.07100835 -0.04332415]
[ 0.19396485 -0.0921367   0.02115454]
[-0.08301972  0.13611549  0.06730399]
[-0.01598295  0.03756491  0.08026464]
[ 0.12810531 -0.00992632  0.08065522]
[-0.08992695 -0.13482018  0.06320554]
[-0.14295901 -0.11173317 -0.07874726]
[ 0.07134993 -0.04639071  0.03180251]
[-0.10414116  0.03709694  0.00106688]
[-0.0381529   0.04876699 -0.06759875]
[ 0.09529269 -0.15798865 -0.01147607]
[ 0.0401434  -0.09376461 -0.09043414]
[-0.0821085  -0.16209835 -0.12101114]
[ 0.00304788  0.0284605  -0.07701084]
[-0.05560468 -0.01976598 -0.1616791 ]
[ 0.0023466  -0.11847976  0.11727729]
[-0.04777888 -0.06370775  0.04237308]
[ 0.13704498 -0.03446873 -0.04460546]
[-0.05336337 -0.05964814  0.10499363]
[0.13427615 0.04524247 0.07393014]
[-0.00127819  0.06319989 -0.10465588]
[-0.03763748  0.00666008  0.08266031]
[-0.08226267  0.01438434  0.01837949]
[ 0.07663376  0.08140936 -0.07372112]
[ 0.08104935 -0.06650403 -0.16494025]
[ 0.02353397 -0.07731405 -0.09750811]
[-0.0413662  -0.09780084  0.15230677]
[ 0.18859445 -0.00404921 -0.18576936]
[ 0.0138234  -0.00157114 -0.2539168 ]
[-0.0361024  -0.15962875  0.21951191]
[-0.0631175   0.08900041 -0.07450727]
[-0.06081372  0.08052564  0.0425734 ]
[-0.1502179   0.01276663 -0.00856189]
[-0.05088845  0.05521203 -0.01416053]
[-0.05142824 -0.03148016  0.11523768]
[ 0.09031036 -0.07595143  0.03941993]
[-0.03250994  0.05739563 -0.19495147]
[-0.07722334  0.0371008   0.09510658]
[ 0.06810889 -0.10887778  0.06572431]
[0.00169683 0.11567728 0.03886639]
[0.01360452 0.10418972 0.12470768]
[ 0.00628184 -0.06744265  0.09486295]
[-0.0705587  -0.13348103  0.02343004]
[-0.08380625  0.06338188  0.08587727]
[-0.07424419 -0.04124577 -0.04801656]
[ 0.19948788  0.10255406 -0.01756171]
[-0.0920544 -0.1139505  0.0008148]
[-0.08976581 -0.03253835 -0.05680189]
[0.09602926 0.07930423 0.02711705]
[-0.05880219 -0.00201318  0.08942525]
[ 0.09775165 -0.12236492 -0.02511252]
[ 0.14230414 -0.09716687  0.05471007]
[-0.10802396  0.19737162 -0.02993663]
[-0.0003784  -0.20682587 -0.11401096]
[-0.04893809  0.04689123 -0.01565614]
[ 0.03892075 -0.06217206  0.15985788]
[0.00547732 0.13969213 0.0660134 ]
[0.04171447 0.16269493 0.04163114]
[ 0.08542388 -0.19378525 -0.02947874]
[-0.05592392 -0.08447022 -0.01213589]
[-0.1463581  -0.03952468 -0.00635007]
[-0.01561972 -0.1031089  -0.00825392]
[ 0.16557918 -0.06024625 -0.06155292]
[-0.05055451 -0.08395392 -0.07659058]
[-0.02111005 -0.04510912 -0.06106566]
[0.0426237  0.05509505 0.10286033]
[0.01219844 0.03268209 0.12561448]
[-0.10340536  0.03745786 -0.19258112]
[ 0.01382115 -0.1410457  -0.00166923]
[-0.04784541  0.07629687 -0.12493465]
[ 1.0327792e-01 -8.7848186e-02 -4.1213061e-06]
[-0.01583359  0.09975947  0.110916  ]
[-0.09037565  0.15631297  0.04320306]
[ 0.22399938  0.03416603 -0.15835005]
[-0.03026991  0.02423534  0.0387931 ]
[ 0.02850338 -0.05858972 -0.2510095 ]
[-0.07911325  0.03120133 -0.14251898]
[0.03414785 0.10669161 0.03458946]
[ 0.14382026  0.10459439 -0.07510443]
[-0.07567879  0.10708597  0.12239439]
[-0.10756487  0.18006763  0.02225053]
[ 0.07842028  0.02395966 -0.05881472]
[-0.03291344 -0.1302529   0.14102998]
[-0.03291463  0.10069422  0.10295071]
[-0.02952769 -0.01927614 -0.02063208]
[-0.22357206 -0.00034205 -0.16463478]
[-0.05110562 -0.07621595  0.01372416]
[-0.05772353  0.04655071  0.02508023]
[-0.01685408  0.03952539  0.05344655]
[-0.05175525  0.13717353  0.05383586]
[ 0.065935   -0.07531436 -0.0222603 ]
[ 0.01855969 -0.07337864 -0.07677571]
[-0.01972756 -0.04101134  0.09182847]
[-0.07621206 -0.12455916  0.03691817]
[-0.14252955  0.00023218 -0.1865849 ]
[0.06950033 0.04108522 0.16397573]
[0.01163183 0.17616929 0.03450723]
[-0.05070248 -0.07616428 -0.02627641]
[-0.01658815  0.12274802  0.15744554]
[ 0.0188762   0.00731033 -0.05205625]
[-0.09152328 -0.07920267  0.0611947 ]
[-0.11153299 -0.16128403  0.02689376]
[-0.01630923  0.00502296 -0.04585173]
[ 0.02206041 -0.04480384  0.10637451]
[ 0.03940351 -0.11491174  0.01240266]
[ 0.07096884 -0.09275626  0.06168967]
[-0.02903884 -0.20009205 -0.02855734]
[-0.04728829  0.09868991 -0.08981113]
[-0.14907244 -0.09279042  0.01866982]
[-0.15292592 -0.13174537 -0.00241831]
[-0.03440925  0.0646428   0.10364265]
[-0.03410458  0.14514743  0.20771484]
[0.07000136 0.07857365 0.14873165]
[-0.03475907  0.13947032 -0.11298323]
[-0.02635809  0.06783056 -0.0022674 ]
[-0.1158376  -0.08164708  0.20303205]
[-0.03737076 -0.0372535   0.03152072]
[-0.03330338 -0.05813939 -0.0097295 ]
[-0.02135936 -0.01612988  0.10662431]
[-0.08907041  0.14216974 -0.01193042]
[-0.03545015  0.10078152  0.20352101]
[ 0.06957524 -0.06115181  0.03919416]
[-0.04524474  0.09498176 -0.08295793]
[ 0.03788962 -0.03178454  0.31369388]
[-0.05531963  0.05027097 -0.13319327]
[ 0.02668015 -0.0266641  -0.02123819]
[ 0.15369065  0.03289033 -0.02016663]
[-0.1308352   0.13327923  0.0273845 ]
[-0.26585162 -0.06214914  0.05271716]
[ 0.08011624  0.03855839 -0.00336382]
[0.06588143 0.1244121  0.07842053]
[ 0.03940876 -0.13318254  0.13824832]
[-0.007301    0.00524071  0.05908164]
[0.11259287 0.08604709 0.03168222]
[ 0.04209352  0.04869458 -0.01974391]
[0.07622499 0.04540114 0.16291685]
[-0.11815207  0.05113928 -0.01812106]
[-0.12235402  0.02287659  0.0931624 ]
[ 0.05836754  0.05985965 -0.04410904]
[0.26589507 0.01490184 0.01058057]
[ 0.07828611 -0.00710208  0.01521199]
[-0.05193295  0.01478746  0.09195437]
[-0.01052747 -0.0261646  -0.05433026]
[-0.06401625 -0.01499295 -0.00547426]
[ 0.06097334  0.06056679 -0.07556807]
[-0.0046711  -0.0899101   0.08969039]
[ 0.06945512  0.06682654 -0.2194234 ]
[ 0.05046911 -0.08160105 -0.02322136]
[ 0.03937696 -0.06971673  0.1100496 ]
[-0.1184637   0.04582216  0.05714602]
[0.13062131 0.06985908 0.1045643 ]
[ 0.1088169   0.01996419 -0.05794897]
[ 0.04317673 -0.16683863  0.194397  ]
[-0.14043616  0.07551004 -0.03010972]
[ 0.00052127 -0.06570012  0.13355282]
[-0.08495291 -0.04296036 -0.03881493]
[-0.04214738  0.0705216  -0.07435196]
[ 0.12953806 -0.0843586   0.03192349]
[ 0.03849449 -0.10041294 -0.10474426]
[-0.06923673  0.13317914 -0.11310369]
[ 0.17666924 -0.11536348 -0.00195644]
[-0.05739414 -0.00513727 -0.08531921]
[0.05548897 0.09372072 0.09747922]
[ 0.13586333 -0.04820453 -0.00998168]
[ 0.02777115 -0.04155443 -0.01577285]
[-0.06266301 -0.1189785  -0.06442513]
[ 0.20124298  0.08873621 -0.02725161]
[ 0.01869389 -0.01233764  0.0164117 ]
[-0.04297869  0.06123715  0.11920023]
[-0.2006797  -0.092824    0.07338259]
[0.08498232 0.08015483 0.1265743 ]
[-0.07799394 -0.01437742  0.10271659]
[-0.05228304 -0.06324907 -0.08151921]
[-0.19374564  0.0165659  -0.18630245]
[ 0.13288526 -0.03831755 -0.00784647]
[ 0.06828749  0.10099099 -0.11308245]
[-0.00666692  0.04685867 -0.09988824]
[ 0.1031801   0.12011813 -0.22543351]
[-0.02821551  0.06004464  0.01924135]
[0.02849978 0.11991636 0.01489037]
[-0.05382874 -0.07497849 -0.00951583]
[0.02371286 0.1422028  0.01236745]
[-0.07737142  0.03494392  0.10193537]
[-0.01930344  0.08705727  0.16377828]
[ 0.01180348  0.0115771  -0.0844994 ]
[-0.15893465 -0.05786903 -0.13618591]
[ 0.08707627 -0.02140924 -0.11702266]
[ 0.05313431 -0.13119267  0.03579456]
[-0.01334551 -0.0867765  -0.00097608]
[-0.01549038 -0.10044601  0.18601984]
[0.00879156 0.05020025 0.13947533]
[ 0.07849283 -0.00284731  0.04500354]
[ 0.02078191 -0.04435714  0.08700533]
[ 0.1353324   0.0525669  -0.08548459]
[ 0.00709623  0.08407336 -0.12991895]
[ 0.10488672  0.07292945 -0.00557613]
[ 0.10110217 -0.01782555  0.0531483 ]
[ 0.02892518 -0.08600613  0.07751151]
[ 0.00659443 -0.05356318 -0.10267982]
[-0.03214455 -0.0038912  -0.00504497]
[-0.14920194 -0.05332113 -0.05563138]
[-0.08829806 -0.04961811  0.00335645]
[-0.11448916  0.10173707  0.22716   ]
[ 0.01567918 -0.06439256 -0.00196717]
[ 0.04702734  0.09098935 -0.06733239]
[ 0.00163415  0.14568646 -0.11577141]
[-0.04972469 -0.01623397 -0.1133137 ]
[-0.06494699  0.01318656  0.01762542]
[ 0.00972084  0.13320543 -0.07426538]
[-0.0703847   0.10703627 -0.04907499]
[ 0.09322608 -0.04905099  0.04213644]
[ 0.02865136  0.01901599 -0.20520572]
[ 0.10318668 -0.07743009 -0.01780098]
[-0.03519168  0.05369939 -0.00194967]
[ 0.09996154 -0.03797836  0.01949412]
[ 0.13051265 -0.07502301  0.07485286]
[-0.22102688  0.03421605  0.03523593]
[-0.09839323  0.00125132 -0.01708458]
[ 0.12457906 -0.08464946  0.00298694]
[ 0.00359105 -0.01324071  0.03930364]
[-0.02452204  0.16157188 -0.0160028 ]
[ 0.00302019  0.07090724 -0.1019882 ]
[ 0.03841258  0.0197943  -0.17008728]
[ 0.01435952 -0.0718696  -0.12781504]
[ 0.05761053 -0.1830408   0.10367481]
[ 0.06779507 -0.03716028 -0.06632894]
[ 0.14582935 -0.00198957 -0.06079337]
[ 0.2228998  -0.02333609 -0.09537644]
[ 0.04013544 -0.15250793 -0.04729271]
[-0.07946531 -0.02608026 -0.00590812]
[ 0.04514402  0.13982558 -0.10731869]
[0.06630305 0.00393683 0.01421073]
[ 0.00518171  0.0403126  -0.05443481]
[ 0.22505744 -0.06818277 -0.01975521]
[ 0.04976043 -0.08543265 -0.035973  ]
[ 0.23492719 -0.10663666 -0.12953281]
[ 0.21106608  0.04999613 -0.05219197]
[-0.03793712  0.01314962  0.04399922]
[ 0.03083112 -0.00622784 -0.02796634]
[ 0.24455391 -0.12598807 -0.06267782]
[ 0.15326238 -0.11403737 -0.06534351]
[-0.02137865 -0.03318187 -0.07966426]
[ 0.09614792 -0.09381365  0.02265728]
[ 0.0513531   0.04724646 -0.06660742]
[-0.07726712  0.14926066 -0.02514307]
[ 0.11804626  0.0810044  -0.05825301]
[ 0.06103811  0.05263814 -0.08978651]
[ 0.08367798  0.04092797 -0.1523839 ]
[-0.1743655  -0.04456535  0.09315512]
[-0.01584435 -0.06086184 -0.04113675]
[-0.05282378 -0.13830356  0.10128186]
[ 0.1646104   0.00251764 -0.0732376 ]
[0.0075663  0.02227295 0.00380595]
[-0.11850575 -0.07199595 -0.02235726]
[ 0.02163011 -0.10448789  0.03102059]
[ 0.09288035 -0.13192838  0.02051735]
[ 0.13278821 -0.07966039 -0.04921574]
[ 0.00304765 -0.03921781 -0.1707352 ]
[-0.14096227  0.03944537  0.0798164 ]
[0.01599683 0.03064304 0.07025109]
[ 0.09167723 -0.04280189 -0.04311353]
[-0.07386141 -0.00265057 -0.198054  ]
[ 0.10042562  0.00060626 -0.03832485]
[0.02216956 0.00920154 0.06167826]
[ 0.07053391 -0.02131263  0.08619938]
[-0.16652755 -0.103695   -0.15214501]
[ 0.15432644  0.04017705 -0.00230553]
[ 0.0157017  -0.04896358  0.05588027]
[ 3.0856183e-02  1.8188293e-05 -6.1941434e-02]
[-0.10077383 -0.04771398  0.03354383]
[-0.07069036 -0.00273072 -0.07450585]
[-0.13216563 -0.07857068 -0.01423934]
[-0.0850556  -0.10780913  0.0462739 ]
[-0.06981008  0.11029073  0.0006033 ]
[ 0.06817319 -0.04558187  0.01018974]
[0.08310122 0.03288228 0.06169802]
[0.01796307 0.14139704 0.16156612]
[-0.04169959 -0.02148558  0.12338752]
[-0.02657282  0.09371856  0.05684112]
[ 0.08542599  0.0491221  -0.06304327]
[-0.1936999  -0.01718128  0.12540115]
[-0.14354794 -0.11258473  0.08608972]
[0.0642124  0.07618428 0.0298379 ]
[0.06575719 0.03223799 0.0083541 ]
[ 0.14465967 -0.08875915 -0.13635603]
[ 0.06732738  0.02673563 -0.01542453]
[-0.05168538  0.08149239  0.02595338]
[ 0.17094244 -0.05513708 -0.0409604 ]
[ 0.01957806 -0.0381887  -0.07653882]
[0.04281866 0.09811161 0.01167458]
[0.11567753 0.05282177 0.02060153]
[ 0.0879062   0.06093306 -0.17403142]
[ 0.01441198 -0.03453005  0.05776695]
[ 0.02729887  0.0576457  -0.12110553]
[ 0.05689038 -0.04007656  0.12502709]
[-0.02753025  0.08596013  0.03011614]
[-0.08388049 -0.10866774  0.24330163]
[-0.11611178  0.02668484  0.0965675 ]
[ 0.16258658 -0.07949702  0.06743053]
[0.10331389 0.02237151 0.03783538]
[ 0.15837632 -0.16844034 -0.10433026]
[-0.07349823  0.05619867 -0.06414872]
[ 0.08106624  0.05146491 -0.00819953]
[ 0.03728327 -0.16784221  0.06632191]
[-0.08954141 -0.07708081  0.1363368 ]
[ 0.03919135  0.13018872 -0.15507866]
[ 0.12948148  0.04528188 -0.08109484]
[ 0.1432953   0.0442578  -0.07064825]
[ 0.10979227 -0.12295425 -0.08445206]
[ 0.11889476 -0.12883443  0.09081154]
[ 0.02773465 -0.08830475 -0.0500569 ]
[ 0.17063709 -0.14999846  0.04922602]
[-0.00858604 -0.07830913  0.06659307]
[-0.10133617 -0.10051325 -0.03994085]
[0.06646899 0.08502842 0.0384365 ]
[-0.04450883 -0.01510154  0.16757798]
[-0.14213483 -0.07358921  0.03985291]
[-0.09499164 -0.02884679  0.05815189]
[ 0.08059608 -0.15158978  0.01338094]
[0.0508646  0.04025115 0.02099857]
[-0.01575975  0.15009488 -0.11301626]
[-0.12118557  0.04178276 -0.13784476]
[-0.05749255 -0.03181277 -0.0792776 ]
[-0.06830362 -0.08997727 -0.00715035]
[-0.06705485  0.0266489  -0.08055313]
[-0.03885258 -0.1918476   0.11457202]
[-0.05612659  0.04303718 -0.1031949 ]
[-0.09895925  0.07912138  0.01886781]
[-0.05650003 -0.09341855 -0.11622085]
[-0.0434464  0.1580252 -0.1417997]
[ 0.04216238 -0.10798965 -0.12218738]
[-0.06151978  0.17544955  0.01596933]
[ 0.08031292 -0.1673678   0.03225011]
[-0.03782196 -0.06180739 -0.0191099 ]
[-0.10227446 -0.03995009 -0.08677157]
[-0.08088682 -0.20667954  0.04942577]
[-0.05858184  0.02229402  0.00025712]
[ 0.11384065 -0.01800254  0.16489886]
[ 0.13062863  0.04907697 -0.11778491]
[-0.05685027 -0.02646446 -0.0214876 ]
[-0.12450032 -0.04991758 -0.03035613]
[-0.05527002  0.01262241  0.11702947]
[ 0.01126023 -0.08521696 -0.05423104]
[-0.08337401  0.02474196  0.08883848]
[ 0.12491485  0.19986783 -0.00106851]
[ 0.00814886 -0.10276488 -0.08807836]
[ 0.06857886  0.02375169 -0.14301555]
[ 0.10690846 -0.02591003  0.13882418]
[-0.07714869 -0.14101855 -0.01783649]
[ 0.02658255 -0.10247539  0.06754502]
[ 0.0411818  -0.0104679  -0.05472356]
[-0.03759944 -0.04147344 -0.11879162]
[ 0.02606177 -0.00199491 -0.08674682]
[-0.12575573  0.08613963 -0.07144016]
[-0.02137025 -0.07358979  0.03515675]
[-0.09744241 -0.02299159  0.227521  ]
[-0.12665094 -0.0426457  -0.01752318]
[-0.05470968 -0.03152946  0.06591943]
[ 0.06137713 -0.13684829 -0.13126005]
[-0.01809275  0.15860648 -0.02183619]
[ 0.01693499 -0.12077921  0.04120343]
[-0.03192949 -0.01340507 -0.01324478]
[ 0.10550964 -0.07185578 -0.00153484]
[ 0.09431072 -0.01777153 -0.10467526]
[-0.1043186   0.16870444 -0.19853382]
[-0.04030385  0.01670578 -0.10122259]
[-0.03111808 -0.15526445  0.01348774]
[-0.08570077  0.07566372  0.24299973]
[-0.00447563 -0.01920364 -0.03956494]
[-0.09185541  0.12933266 -0.09472582]
[ 0.12221742 -0.02841387 -0.09480865]
[ 0.16591184  0.00774064 -0.05310312]
[ 0.05467623 -0.17203873 -0.03615579]
[ 0.04815511 -0.01655956  0.02309441]
[0.02042075 0.07625705 0.06860539]
[ 0.0025458   0.01198633 -0.06323832]
[-0.14973727  0.09849241  0.00956711]
[0.05234679 0.01880888 0.0570254 ]
[ 0.13192411  0.0047362  -0.06339054]
[ 0.22175917 -0.09997126 -0.1375821 ]
[ 0.05087128  0.11836275 -0.08491085]
[ 0.07360319  0.06361923 -0.01051445]
[ 0.01586559  0.03090018 -0.04637602]
[0.15116042 0.03142997 0.0901131 ]
[-0.01943892  0.00705158 -0.18386152]
[ 0.04456969 -0.1301093   0.03399039]
[ 0.02952484 -0.05609176 -0.18060799]
[ 0.08976749  0.02591298 -0.05664302]
[ 0.03780881  0.08090999 -0.19699527]
[0.03267673 0.07387791 0.00576993]
[ 0.01070896  0.0329682  -0.09601487]
[-0.04679433 -0.07022741 -0.08183271]
[-0.1425729   0.1052169   0.16500632]
[-0.12001842  0.01744382  0.15209912]
[ 0.03871249 -0.07909446  0.27598733]
[-0.03427394 -0.01982085 -0.09718257]
[-0.01318516  0.0276006  -0.12491749]
[ 0.00178506 -0.08771592 -0.04734409]
[ 0.13243423 -0.08630354 -0.02008951]
[-0.03831138 -0.13811326 -0.05932651]
[-0.07351928 -0.03281927 -0.31978995]
[-0.00561588  0.1652415  -0.12039246]
[ 0.02719783  0.01099767 -0.04230883]
[-0.07906024  0.02355983  0.00278057]
[ 0.18012087 -0.03972469 -0.00687354]
[-0.03024654 -0.00994566  0.06026272]
[ 0.0739915  -0.12480836 -0.10883554]
[-0.15710938 -0.14377114  0.10190357]
[0.06825182 0.03146385 0.09543204]
[-0.05610381  0.0029563   0.03653871]
[-0.13908887  0.10662934  0.08390981]
[-0.10309232  0.01099218 -0.03101196]
[ 0.0326771   0.0436442  -0.06794677]
[-0.11220678 -0.00988185 -0.08224933]
[-0.03891494 -0.04186078 -0.04025782]
[-0.07599813 -0.16115907 -0.00674953]
[ 5.51938498e-03  1.90686975e-02 -1.77443083e-02  1.77090149e-02
  9.94716189e-04  1.48526318e-02  6.16004399e-04 -2.32807305e-02
 -3.28092749e-04 -4.01608497e-02 -6.41500996e-03  8.75077303e-03
 -1.97837837e-02 -2.02205963e-04 -3.79669177e-03  1.04465494e-02
  4.59689321e-03 -1.07694939e-02 -4.20069191e-05 -2.25461996e-03
 -7.30284140e-04  1.20605286e-02  1.20748365e-02 -1.70702282e-02
  1.30580990e-02 -6.22174330e-03  1.75799511e-03 -7.60229770e-03
 -9.46934044e-04 -9.63011198e-03 -6.46087807e-03  1.59155186e-02]
layer 10 BatchNormalization
32 0.001
[1.3315202 1.2813118 1.2456151 1.1809809 1.1120126 1.1192083 1.270931
 1.2713733 1.0893906 1.1697013 1.0757122 1.0655731 1.1555836 1.3306646
 1.250602  1.3641822 1.062671  1.2973528 1.3209924 1.1779351 1.1101488
 1.2360969 1.2332606 1.064956  1.2462244 1.3122004 1.1935376 1.1994762
 1.2781136 1.1471928 1.3451275 1.12109  ]
[ 4.4857193e-02  1.9090729e-02  4.9532983e-02  6.0619481e-02
  2.5300028e-02 -3.8255092e-02  2.0812765e-02  4.0863793e-02
  5.6883600e-02  2.5794242e-02 -3.8830049e-02  7.3368694e-03
  6.0776565e-02 -3.6020007e-05 -6.5991975e-02  1.7963478e-02
  4.4924244e-03  4.1376293e-02 -2.0403152e-02  3.2230962e-02
  8.7411739e-03  1.9753393e-02  1.4862933e-02  1.4760128e-02
  5.1917206e-02  8.0498993e-02 -1.3472091e-02  6.5865055e-02
  9.4500072e-02  1.2533486e-02  1.9268376e-01  4.0235794e-03]
[-0.16987483  0.25040463  0.88531023 -1.0756705   0.71001667 -0.6037467
 -0.41567805  0.07358957  0.06567743 -1.9977083  -0.13733846 -0.7183033
 -0.3211062  -0.09412603 -0.25378698 -0.0672471  -0.96930456 -0.06623412
 -0.0359114  -0.3203202   0.3046503  -1.0738734   0.3993343  -0.6450924
 -0.12198436  0.09120586  0.66934186  0.09965945 -0.7193867   0.8842815
 -1.8996017  -1.1287595 ]
[0.76601225 1.0742834  0.6276041  1.0779159  1.4741054  0.6290449
 0.75441504 0.8154131  1.3623874  0.7480166  1.1492506  1.0956293
 0.55550843 0.8437142  0.9361738  0.848028   0.83988225 1.022791
 0.69070953 0.59329426 0.9020358  0.8033217  0.9465984  0.9662487
 0.74325776 1.3059002  0.84812516 1.0180374  1.927238   0.9150378
 1.0944351  1.657639  ]
layer 11 Activation
relu
layer 12 MaxPooling2D
2 2 2
layer 13 Flatten
layer 14 Dense
128 1
[0.2803912]
[-0.14299476]
[0.21345341]
[0.15893167]
[-0.0205852]
[-0.3694146]
[0.31620896]
[0.0482884]
[-0.1476798]
[0.09376976]
[0.13666366]
[-0.13373145]
[-0.07423873]
[-0.15410855]
[0.15360324]
[0.19139166]
[-0.14406286]
[-0.31785583]
[0.3525109]
[-0.08331571]
[-0.20674883]
[0.12813647]
[-0.18742558]
[-0.16416192]
[-0.26610476]
[0.11885235]
[-0.32114232]
[-0.16637352]
[0.08370161]
[-0.2639996]
[0.22276397]
[0.0493695]
[0.18199338]
[-0.15816393]
[0.25790313]
[-0.06086786]
[-0.31365094]
[-0.17879489]
[-0.23129438]
[-0.0168783]
[0.17370482]
[-0.24971873]
[0.29077166]
[-0.28128508]
[0.1724006]
[-0.00915593]
[0.05714784]
[-0.17376076]
[-0.07951695]
[0.19905612]
[-0.36626354]
[0.09207617]
[-0.27965686]
[-0.45118612]
[0.1923795]
[-0.26187766]
[0.1478768]
[-0.13485059]
[0.17149182]
[0.1236697]
[0.144931]
[0.26745248]
[-0.11660712]
[0.29685804]
[0.04280924]
[0.29485118]
[0.24255675]
[-0.1561884]
[-0.0536148]
[0.05560213]
[-0.05119077]
[-0.05259407]
[-0.17924987]
[-0.19915178]
[0.1061724]
[-0.03384281]
[-0.2994188]
[0.38239273]
[-0.23628928]
[-0.07740075]
[-0.15139616]
[-0.28144473]
[-0.16540645]
[0.15672687]
[0.0304865]
[-0.11117553]
[-0.00788829]
[-0.05240284]
[0.08919211]
[0.041354]
[0.18998407]
[-0.19964263]
[-0.42077494]
[0.16596596]
[0.04027817]
[-0.17017834]
[-0.26694766]
[-0.333543]
[-0.3668261]
[-0.23839691]
[-0.2688942]
[-0.01537672]
[0.30266938]
[-0.37937725]
[0.02094015]
[-0.31979442]
[0.02833582]
[-0.28434762]
[-0.16069987]
[-0.17801128]
[0.31966454]
[0.21246687]
[-0.18135734]
[0.27723244]
[0.19046839]
[-0.30380982]
[0.02549722]
[0.03121073]
[0.19377382]
[-0.06178221]
[-0.35678256]
[-0.39415556]
[0.2972006]
[0.27488738]
[0.13249628]
[0.24877425]
[-0.4218665]
[0.14894307]
[-0.03594026]
layer 15 Activation
sigmoid
